%YAML:1.0
---
opencv_ml_svm:
   format: 3
   svmType: C_SVC
   kernel:
      type: LINEAR
   C: 2.6699999999999999e+00
   term_criteria: { epsilon:1.1920928955078125e-07, iterations:1000 }
   var_count: 400
   class_count: 10
   class_labels: !!opencv-matrix
      rows: 10
      cols: 1
      dt: i
      data: [ 0, 1, 2, 3, 4, 5, 6, 7, 8, 9 ]
   sv_total: 45
   support_vectors:
      - [ 0., 0., 0., 0., 0., 0., 0., 0., 0., 0., 0., 0., 0., 0., 0., 0.,
          0., 0., 0., 0., 0., 0., 0., 0., 0., 0., 0., 0., 0., 0., 0., 0.,
          0., 0., 0., 0., 0., 0., 0., 0., 0., 0., 0., 0., 0., 0.,
          2.69899647e-06, 7.70491715e-06, -4.34984486e-06,
          -9.13544864e-05, -2.39347981e-04, -4.42898927e-05,
          1.73434877e-04, 9.59548343e-05, 1.50985561e-05, 2.55332361e-06,
          4.87452689e-06, 2.32120328e-07, 0., 0., 0., 0., 0., 0., 0.,
          -1.03196996e-07, 1.33189806e-05, 2.69881530e-05,
          1.46030497e-05, -1.69974577e-04, -8.61073568e-05,
          1.78100105e-04, 2.54549261e-04, 6.73276154e-05, 7.53897984e-06,
          2.40991321e-05, 4.64077784e-05, 2.96243361e-05, 0., 0., 0., 0.,
          0., 0., 0., -9.16127919e-06, -2.18754049e-05, 1.91645213e-05,
          1.11324720e-04, -9.12729665e-05, -2.12208161e-05,
          2.24375835e-05, 1.45795595e-04, 2.86081104e-05,
          -6.70729933e-05, -1.00222162e-04, -1.28219074e-06,
          4.83728691e-05, 0., 0., 0., 0., 0., 0., -4.55904847e-05,
          -1.31705005e-04, 3.43601168e-05, 1.47322338e-04,
          1.23200707e-05, -2.62761732e-05, 4.43506215e-05,
          -2.07950929e-04, 1.22655023e-04, 1.34935457e-04,
          -3.24511857e-05, -7.22830227e-05, 1.21006451e-06,
          3.82611615e-05, 0., 0., 0., 0., 0., 0., -9.31836767e-05,
          -1.98507521e-04, 3.38695900e-05, 1.37574010e-04,
          4.10023713e-05, 7.67545789e-05, 1.54554189e-04,
          -2.73022870e-05, 3.27266869e-04, 2.11438426e-04,
          1.51147087e-05, 1.38721312e-04, 1.20081560e-04, 1.84836445e-05,
          0., 0., 0., 0., 0., 2.44613102e-06, -6.70499430e-05,
          -1.88581798e-05, 1.47827668e-04, 5.44112554e-05,
          2.73170681e-05, 8.51728910e-05, -2.05136312e-04,
          -4.00631892e-04, 1.97449001e-04, 3.47986410e-04,
          2.18690388e-04, 1.50540465e-04, 1.84647753e-04, 2.78960615e-05,
          -3.80867641e-05, 0., 0., 0., 0., 6.58922654e-05,
          1.11684785e-04, 5.40512629e-05, 2.05860997e-05,
          -7.80275077e-05, 9.93981303e-05, -1.08773238e-04,
          -6.60462480e-04, -6.20743318e-04, 7.01220997e-05,
          4.55557485e-04, 3.74484080e-04, 2.77254934e-04, 1.67299950e-04,
          7.71595878e-05, -3.31723422e-05, 0., 0., 0., 4.00610617e-07,
          1.16053248e-04, 2.60003289e-04, 3.99314886e-05, 5.62261812e-05,
          2.21572351e-04, 2.83493078e-04, -3.84673243e-04,
          -7.89703918e-04, -6.34227879e-04, 1.07310341e-04,
          4.70440718e-04, 3.00912565e-04, 3.25968867e-04, 2.29273050e-04,
          1.33443071e-04, 0., 0., 0., 0., 3.30503758e-06, 1.42013421e-04,
          3.57337412e-04, 2.22359900e-04, 8.79423442e-06, 3.79620760e-04,
          1.34171161e-04, -4.99915099e-04, -7.27555307e-04,
          -4.62561205e-04, 1.79666225e-04, 4.15390765e-04,
          2.93967780e-04, 2.44752009e-04, 2.73921149e-04, 1.63924866e-04,
          0., 0., 0., 0., 3.70564817e-06, 1.16995696e-04, 3.54660529e-04,
          3.20348801e-04, 1.50138294e-04, 3.39420745e-04,
          -1.04576291e-04, -6.52246235e-04, -4.13662056e-04,
          -1.95848988e-04, 2.30426012e-04, 3.07558774e-04,
          2.53766571e-04, 2.26786244e-04, 2.89532705e-04, 1.67411985e-04,
          0., 0., 0., 0., 4.41633620e-06, 7.36328802e-05, 2.70323915e-04,
          3.30701208e-04, 2.08011843e-04, 2.95412814e-04,
          -8.23832452e-05, -5.20348549e-04, -1.58560550e-04,
          5.44241884e-05, 2.85243004e-04, 1.93817061e-04, 1.93335742e-04,
          3.19648825e-04, 2.79297878e-04, 8.83178072e-05, 0., 0., 0., 0.,
          3.64397351e-06, 8.47722622e-05, 1.68444196e-04, 1.99672751e-04,
          6.70365189e-05, 1.44318779e-04, 9.55383293e-05,
          -2.14437590e-04, -2.56700325e-04, 2.17844994e-04,
          3.83999170e-04, 1.84276505e-04, 1.77505135e-04, 2.34628591e-04,
          1.95085959e-05, -3.88789595e-05, -3.12614873e-07, 0., 0., 0.,
          3.40155452e-06, 8.02053182e-05, 8.99792067e-05, 7.89577025e-05,
          3.13572564e-05, 1.01751277e-04, 1.54287773e-04,
          -3.02832166e-04, -4.17588017e-04, 1.31525667e-04,
          3.17036873e-04, 4.56825837e-05, 9.83124301e-06,
          -1.88339254e-04, -2.95306701e-04, -2.52815254e-04,
          -3.45461922e-05, 0., 0., 0., 2.35492234e-06, 5.87569266e-05,
          9.02206157e-05, 2.11641163e-05, 1.49473954e-05, 6.84582701e-05,
          1.80084389e-04, 5.99524974e-05, -8.76982267e-06,
          1.01921250e-04, 1.35110377e-05, 5.60312264e-06,
          -1.48775391e-04, -2.39195200e-04, -2.46680313e-04,
          -2.67701253e-04, -1.35589828e-04, 0., 0., 0., 8.72193482e-08,
          4.23067786e-06, 1.05190475e-05, -9.75643275e-07,
          7.26586877e-05, 1.18485135e-04, 3.02727334e-04, 3.93028400e-04,
          3.15254205e-04, 6.80304220e-05, -1.93853208e-04,
          2.20885249e-05, -3.00258216e-05, -5.17133703e-05,
          -5.38909262e-05, -5.71903693e-05, -3.18946295e-05, 0., 0., 0.,
          0., -1.05019544e-05, -5.31501719e-05, -4.57553542e-05,
          3.87837827e-06, -5.56444729e-06, -3.70274502e-05,
          7.45127545e-05, 1.01044971e-04, 2.62472113e-05,
          -2.06544384e-04, -1.43543048e-05, 3.16735282e-07, 0., 0., 0.,
          0., 0., 0., 0., 0., 0., 0., 0., 0., 0., 6.70321197e-06,
          2.30888418e-05, 1.67580292e-05, 5.95841084e-06, 0., 0., 0., 0.,
          0., 0., 0., 0., 0., 0., 0., 0., 0., 0., 0., 0., 0., 0., 0., 0.,
          0., 0., 0., 0., 0., 0., 0., 0. ]
      - [ 0., 0., 0., 0., 0., 0., 0., 0., 0., 0., 0., 0., 0., 0., 0., 0.,
          0., 0., 0., 0., 0., 0., 0., 0., 0., 0., 0., 0.,
          -1.16746749e-04, -3.08579009e-04, -3.93943737e-05, 0., 0., 0.,
          0., 0., 0., 0., 0., 0., 0., 0., 0., 0., -5.46109959e-06,
          -3.10028117e-05, -5.04860218e-05, -9.21889659e-05,
          -2.31570608e-04, -4.55364905e-04, -4.97729867e-04,
          -2.65374692e-04, 4.72528336e-04, 1.51334141e-04,
          -2.27323326e-04, -6.81880629e-05, 0., 0., 0., 0., 0., 0.,
          -3.03476804e-06, -4.25462240e-05, -7.85775846e-05,
          -1.49233645e-04, -1.43087862e-04, -1.22809244e-04,
          7.65475634e-05, 1.04677983e-05, -1.46570455e-04,
          -7.74953660e-05, -2.99124600e-04, 7.19896489e-05,
          2.27258352e-04, 1.86830788e-04, 2.32302380e-04, 4.52426048e-06,
          0., 0., 0., -1.27628855e-05, -6.38949787e-05, -1.37481853e-04,
          -1.43526166e-04, -1.64453275e-04, -2.49682984e-04,
          -1.13034643e-04, -1.17954725e-04, 3.89091001e-04,
          1.42189325e-04, -9.57768425e-05, -2.77765823e-04,
          -3.04456102e-04, 5.35530635e-05, 1.45405211e-04,
          1.41308177e-04, 1.56814203e-05, 0., 0., 0., -1.14865965e-04,
          -3.40334227e-04, -3.48257890e-04, -3.34363111e-04,
          -5.99826686e-04, -4.33192909e-04, -4.11402114e-04,
          -3.93029652e-04, 6.67229178e-04, 2.14077027e-05,
          6.75217525e-05, -5.64710535e-05, -2.34661173e-04,
          -2.74429010e-04, -2.51721885e-05, -1.88489412e-06,
          4.09676577e-05, 0., 0., 0., -2.26895736e-05, -2.75111088e-04,
          -3.28325346e-04, -1.63099947e-04, -5.29469631e-04,
          -1.88785896e-04, -6.18458551e-04, -1.23349702e-04,
          4.11198067e-04, 5.01833158e-04, -6.99645374e-04,
          -7.93633983e-04, -1.54641806e-04, -5.37150772e-04,
          3.58476711e-04, 4.47358267e-04, 3.72342591e-04, 0., 0., 0., 0.,
          -9.41885519e-05, -4.24056750e-04, 8.59915659e-08,
          4.21604695e-04, 3.61729675e-04, -3.90628120e-04,
          7.55767222e-04, 1.26700487e-03, 2.01505522e-04,
          -1.14205957e-03, -9.28532681e-05, 7.33272987e-04,
          -1.62788958e-04, 7.17534349e-05, 3.09451891e-04,
          1.94280350e-04, 0., 0., 0., 0., -3.54569165e-05,
          -2.77482613e-04, 6.00724190e-04, 1.18376955e-03,
          4.52364824e-04, -3.91076348e-04, 9.92600573e-04,
          4.93262254e-04, -8.06277560e-04, -7.35004200e-04,
          2.47821095e-04, 1.83634926e-04, -1.14864786e-04,
          3.76488751e-04, 3.84068349e-04, -1.54831614e-05, 0., 0., 0.,
          0., -6.58164863e-05, 9.27503206e-05, 9.55288007e-04,
          7.34352798e-04, 1.90359380e-04, 6.84452418e-04, 7.11498200e-04,
          6.96905263e-05, -1.01699622e-03, -7.83268712e-04,
          -2.10590835e-04, 4.63554519e-04, 1.27785504e-04,
          7.82025047e-04, 5.34042891e-04, 1.86449164e-04, 0., 0., 0., 0.,
          -9.17876387e-05, 3.00541462e-04, 6.40530896e-04,
          3.88168759e-04, 4.48199949e-04, 1.47768040e-03, 5.79382235e-04,
          -5.74699370e-04, -1.84493791e-03, -1.21810380e-03,
          1.17549484e-04, 3.11761250e-04, 3.03411725e-05, 7.22578436e-04,
          5.76693797e-04, 2.73567188e-04, -1.03674232e-04,
          -1.20953273e-05, 0., 0., -7.58299502e-05, 2.50222274e-05,
          1.29050517e-04, 5.85635658e-04, 3.33749631e-04, 4.41088661e-04,
          -6.54753938e-04, -1.49609591e-03, -2.19956296e-03,
          -9.22122854e-04, -2.93539779e-04, -6.56582648e-04,
          4.26427432e-05, 2.33413070e-04, 3.37752950e-04,
          -2.34257059e-05, -2.17715889e-04, -4.92452600e-05, 0., 0.,
          -3.98616903e-05, -3.28397029e-04, -1.03045000e-04,
          4.54981899e-04, 1.95974964e-04, 2.23799056e-04,
          -7.54729335e-05, -1.24657317e-03, -1.44171296e-03,
          -5.07162244e-04, -4.50943044e-04, -4.97694637e-05,
          -3.23076201e-05, 3.22404740e-05, 2.37513214e-05,
          -1.78239225e-05, -1.67606675e-04, -5.87487339e-05, 0., 0.,
          -1.07018102e-04, -6.17607962e-04, 3.06481350e-04,
          9.82575584e-04, 1.15014533e-04, 2.43329632e-04, 2.60133820e-04,
          -2.03671327e-04, -3.97052907e-04, -5.52801241e-04,
          -8.63232301e-04, 2.94090365e-04, 1.10110945e-04,
          -2.44527491e-05, -2.21482769e-04, -5.61516972e-05,
          -7.70499100e-05, -4.31975968e-06, 0., 0., -1.46032340e-04,
          -6.36374578e-04, -5.51702578e-05, -6.00662206e-05,
          -1.90806677e-04, 3.37182544e-04, -1.49115469e-04,
          -1.32403875e-04, -6.66396110e-04, -1.05789059e-03,
          -1.72026077e-04, 1.26011233e-04, -2.33190745e-04,
          -4.19162039e-04, -2.55622086e-04, -2.44926749e-04,
          -2.50013400e-04, -5.26343974e-05, 0., 0., -2.49287346e-04,
          -6.77042772e-05, 1.55887377e-04, -4.16296680e-04,
          1.08288448e-04, 3.29190923e-04, 3.80189769e-04, 2.13953375e-04,
          3.92379035e-04, -3.25877081e-05, -1.07294065e-03,
          -4.01947094e-04, -3.72529816e-04, -2.31614729e-04,
          -1.01595884e-04, -1.04336126e-04, -8.50247961e-05,
          -1.51829991e-05, 0., 0., -4.36175324e-05, 2.50043049e-05,
          2.15222230e-04, -6.79229095e-04, -5.41115121e-04,
          5.44467111e-05, 8.44616501e-04, 1.32391404e-03, 9.68058710e-04,
          -5.98252809e-04, -1.31685927e-03, -3.63532658e-04,
          -4.32950656e-05, -1.26111525e-04, -9.20460734e-05,
          -1.26448667e-05, 0., 0., 0., 0., -1.25251390e-05,
          -4.64737313e-05, -5.83916080e-05, -1.57827206e-04,
          -1.03683000e-04, 9.60313409e-05, 3.03082343e-04,
          2.88142473e-04, 1.79509618e-04, 1.15788003e-04,
          -4.34167770e-04, -6.49484631e-04, -3.52557458e-04,
          -1.51738404e-05, -1.51738404e-05, -2.02317869e-06, 0., 0., 0.,
          0., 0., 0., 0., 0., 0., 0., 2.41686903e-05, 8.32477090e-05,
          6.04217275e-05, 2.14832799e-05, -6.91495297e-05,
          -3.92769347e-04, -2.40640366e-04, 0., 0., 0., 0., 0., 0., 0.,
          0., 0., 0., 0., 0., 0., 0., 0., 0., 0., 0., 0., 0., 0., 0., 0.,
          0., 0. ]
      - [ 0., 0., 0., 0., 0., 0., 0., 0., 0., 0., 0., 0., 0., 0., 0., 0.,
          0., 0., 0., 0., 0., 0., 0., 0., 0., 0., 0., 0., 0., 0., 0., 0.,
          0., 0., 0., 0., 0., 0., 0., 0., 0., 0., 0., 0., 0.,
          -1.06481150e-06, -1.71969550e-05, -5.01429022e-05,
          -1.53923756e-04, -2.63501075e-04, -2.75936356e-04,
          -2.28434554e-04, 2.64418322e-05, 1.07981708e-04,
          -1.18649885e-04, -5.35144027e-05, 1.11542977e-05,
          5.31157070e-07, 0., 0., 0., 0., 0., 0., -8.82293025e-05,
          -3.56284610e-04, -3.87758424e-04, -3.38364538e-04,
          -5.19815541e-04, -5.98427490e-04, -1.49577972e-04,
          2.57396227e-04, 5.32758539e-04, 1.87290847e-04,
          -9.98325777e-05, -4.99674497e-05, 1.12422400e-04,
          6.85533596e-05, 0., 0., 0., 0., 0., -5.69842559e-05,
          -4.51388274e-04, -7.98530353e-04, -6.34724332e-04,
          -5.11012389e-04, -4.72823856e-04, -2.46594747e-04,
          4.50611369e-05, -7.00278588e-06, -1.31129433e-04,
          -2.25017939e-04, -2.76720617e-04, -1.18162075e-06,
          -1.30483706e-04, 7.78362155e-05, 0., 0., 0., 0., 0.,
          -5.31613159e-06, -3.06264177e-04, -5.60208224e-04,
          -6.33105519e-04, -5.10938931e-04, 7.33053230e-06,
          3.67006607e-04, -1.21442987e-04, -2.89399904e-05,
          -7.17771691e-05, -3.06262547e-04, 4.58156283e-05,
          4.35851223e-04, -2.46614363e-05, 5.31892947e-05, 0., 0., 0.,
          0., 0., -4.09280292e-05, -2.87339586e-04, -3.92193411e-04,
          -2.83734058e-04, -1.26978237e-04, -8.94997429e-05,
          2.14301035e-04, 3.13862343e-04, 8.79648869e-05, 1.72794884e-04,
          5.24861214e-04, 1.18943077e-04, 5.25831092e-05, 2.77219602e-04,
          5.84060836e-05, 0., 0., 0., 0., 0., -1.10635312e-06,
          8.61017106e-05, 2.55317922e-04, 4.28442348e-04, 2.84698035e-04,
          4.86686884e-04, 4.72932472e-04, -1.66920392e-04,
          -9.38311801e-04, 2.12932246e-05, 6.10770425e-04,
          2.14732048e-04, 7.72114872e-05, 4.03618556e-04, 6.09618510e-05,
          0., 0., 0., 0., 0., 5.84605768e-05, 5.01654926e-04,
          6.20839710e-04, 2.54911516e-04, 5.56704690e-05, 4.06173815e-04,
          -5.89601514e-05, -1.32455851e-03, -1.51238451e-03,
          -4.57202055e-04, 4.88277219e-05, 2.35545886e-04,
          2.99937441e-04, 4.59067291e-04, 1.53909990e-04, 0., 0., 0., 0.,
          0., 1.69401625e-04, 5.74335281e-04, 6.16045552e-04,
          8.53685488e-05, -1.61780277e-04, 1.37710274e-04,
          -2.25018652e-04, -1.15320156e-03, -1.27138256e-03,
          -8.43777379e-04, -1.71039792e-04, 1.41134195e-04,
          3.23678250e-04, 4.71663749e-04, 1.89676153e-04, 0., 0., 0., 0.,
          5.84272448e-06, 3.47124180e-04, 8.64499249e-04, 8.94726720e-04,
          -6.32517686e-06, 1.45153783e-04, 1.98690992e-04,
          -2.28553617e-04, -1.19975931e-03, -1.03669742e-03,
          -1.41636920e-04, 2.02572366e-04, 1.46127495e-05,
          1.30280197e-04, 4.15625575e-04, 2.97595452e-05, 0., 0., 0.,
          -7.36312941e-05, -1.04596271e-04, 5.34985506e-04,
          1.05108833e-03, 1.11257599e-03, 9.04742919e-04, 4.19102231e-04,
          -3.94316994e-05, -7.66078883e-04, -9.99057665e-04,
          -3.04852001e-04, 3.69738409e-04, 3.93563932e-05,
          -4.67327482e-05, 1.81138530e-04, 3.11714917e-04,
          -1.23637263e-04, 0., 0., 0., -1.91374842e-04, -4.26709914e-04,
          1.92397401e-05, 4.59180621e-04, 5.28658100e-04, 6.89141627e-04,
          4.95484041e-04, 3.29292670e-04, -2.60240660e-04,
          -9.41137623e-05, 8.04376687e-05, 2.56167783e-04,
          -7.51138359e-05, 4.58365612e-05, 3.26289213e-04,
          1.87884492e-04, -1.62283919e-04, 0., 0., 0., -4.50223124e-05,
          -3.93029681e-04, -3.14990204e-04, 7.64643119e-05,
          -4.66472557e-05, 3.97624572e-05, 2.82386522e-04,
          4.12758091e-04, -7.95464712e-06, -1.66867627e-04,
          -7.31045366e-05, 1.33758631e-05, 1.24122496e-04,
          -9.61327678e-05, -1.20367127e-04, -1.39118798e-04,
          -1.93412678e-04, 0., 0., 0., 0., -1.61243050e-04,
          -2.42947033e-04, -1.66855622e-04, -3.22558539e-04,
          -2.27204568e-04, 4.92858468e-04, 3.57783574e-04,
          -2.92020501e-04, -5.18698187e-04, -1.37219380e-04,
          1.03359838e-04, -3.09952011e-05, -2.44672236e-04,
          -4.80511080e-04, -4.73722059e-04, -1.52010238e-04, 0., 0., 0.,
          0., -1.86090256e-05, -1.55455913e-04, -2.86866107e-05,
          -6.70427835e-05, -1.02264392e-04, 2.28852427e-04,
          4.59525123e-04, -2.46436655e-04, -2.67411000e-04,
          -2.66347229e-06, -4.29882057e-05, -1.89359431e-04,
          -2.76668783e-04, -4.69700666e-04, -2.19770038e-04,
          4.53533676e-06, 0., 0., 0., 0., -3.38942700e-05,
          -2.23067342e-04, 2.57814954e-05, -3.19833867e-04,
          -1.32362664e-04, 8.17598193e-05, 5.34650404e-04,
          4.14712849e-04, 2.54974148e-04, 1.73076551e-04,
          -2.62467038e-05, -8.32649384e-05, -2.43152070e-04,
          -1.58498107e-04, -4.52146378e-06, 1.85773979e-06, 0., 0., 0.,
          0., -5.64183938e-06, -9.33133124e-05, -6.22633888e-05,
          -4.22450452e-04, -5.89676609e-04, -3.26005829e-04,
          3.16567748e-05, 2.69480137e-04, 2.09835547e-04,
          -4.95292006e-05, -3.28038841e-05, -1.80313091e-05,
          -1.32081977e-05, 1.40010079e-05, 2.65391395e-06, 0., 0., 0.,
          0., 0., 0., 0., -3.82511234e-06, -1.48587627e-04,
          -1.48789142e-04, -1.02937636e-04, -8.88109353e-05,
          -4.95963759e-05, -1.16786396e-04, -1.34340851e-04,
          -1.24024336e-06, 0., 0., 0., 0., 0., 0., 0., 0., 0., 0., 0.,
          0., 0., 0., -4.58890026e-05, -9.42584884e-05, -8.92975149e-05,
          -8.43365415e-05, -2.10841354e-05, 0., 0., 0., 0., 0., 0., 0.,
          0. ]
      - [ 0., 0., 0., 0., 0., 0., 0., 0., 0., 0., 0., 0., 0., 0., 0., 0.,
          0., 0., 0., 0., 0., 0., 0., 0., 0., 0., 0., 0., 0., 0.,
          -1.93722244e-07, -1.51103350e-05, -7.36144511e-06, 0., 0., 0.,
          0., 0., 0., 0., 0., 0., 0., 0., 0., 0., 4.90066623e-06,
          -2.70829023e-05, -2.26352386e-05, 1.18713824e-05,
          -1.13763699e-05, 5.07422264e-05, 4.79680311e-04,
          1.93376080e-04, 2.40879162e-05, -2.39021247e-05,
          -6.71613998e-06, 0., 0., 0., 0., 0., -2.97598103e-06,
          -3.57117715e-05, -2.42329879e-05, 1.69305895e-05,
          -1.69236391e-05, -2.84415320e-04, -2.34073639e-04,
          2.33336759e-04, 6.59689715e-04, 6.78768847e-04, 4.20975237e-04,
          3.26441543e-04, 1.24936283e-04, -1.01719379e-04,
          -5.72185672e-05, 8.75857495e-06, 0., 0., 0., 0.,
          -1.19039241e-05, -9.94827933e-05, -9.56565273e-05,
          -3.28393908e-05, -1.61369913e-04, -3.39728722e-04,
          -1.47379993e-04, 4.06984618e-04, 3.99949000e-04,
          3.46224930e-04, 3.23910266e-04, 2.54756451e-04, 1.06709260e-04,
          -9.43928389e-05, -1.23677717e-04, 1.91587114e-05, 0., 0., 0.,
          0., -4.25140115e-06, -7.56749432e-05, -1.26314320e-04,
          -1.86977239e-04, -1.24548082e-04, -1.73086490e-04,
          2.09422142e-04, 2.36219450e-04, 2.43363993e-05,
          -1.21117610e-05, 2.60022265e-04, -1.11008136e-04,
          -3.91121808e-04, -2.53376231e-04, -6.10206553e-05,
          -3.76921744e-05, 0., 0., 0., 0., -2.12570058e-06,
          -7.93027866e-05, -2.09476624e-04, -1.64032215e-04,
          5.39862267e-05, 6.05967689e-05, 4.74470347e-04, 2.86259368e-04,
          7.52348744e-04, 8.17318869e-05, 1.04291496e-04, 2.23017792e-04,
          -3.83622886e-04, -2.39528221e-04, -3.87618027e-04,
          -7.93044455e-05, 0., 0., 0., 0., -2.55084092e-06,
          -4.06280888e-05, -2.03381060e-05, 2.82197259e-04,
          1.66704689e-04, -1.66807557e-04, 6.54584030e-04,
          5.14971442e-04, 9.07739624e-04, 2.19065303e-04, 4.70135827e-04,
          6.30068884e-04, 2.86388764e-04, 2.40474532e-04, 8.10234706e-05,
          2.50415236e-04, 0., 0., 0., 0., -1.10580986e-05,
          -6.37758567e-05, 3.03142500e-04, 1.95409608e-04,
          -4.73947264e-04, -1.32610454e-04, 5.94142999e-04,
          4.80884395e-04, -4.95923741e-05, -4.67625156e-04,
          -2.89869844e-04, -4.71438470e-05, 2.65702489e-04,
          5.44367824e-04, 2.36432665e-04, -8.66882765e-05,
          -1.44191890e-05, 0., 0., 7.69711278e-06, -1.86323778e-05,
          4.85807977e-05, 1.36258401e-04, -2.54848506e-04,
          -4.66772763e-04, 2.77725867e-05, -9.17430152e-05,
          -3.58661491e-04, -6.04111876e-04, -7.93756626e-04,
          -6.12745760e-04, -6.81146106e-04, -1.48607578e-05,
          6.19864033e-04, 3.73965973e-04, -2.08963713e-04,
          -4.56607631e-05, 0., 0., 8.10222446e-07, -1.63238601e-05,
          4.31092049e-05, 9.95170922e-05, 2.18753587e-04,
          -3.00464017e-04, 9.08170259e-05, -1.76420188e-04,
          -4.97657049e-04, -9.98390140e-04, -1.01497525e-03,
          -6.37474528e-04, -1.89821847e-04, 3.34888551e-04,
          5.90979587e-04, 4.01728466e-04, 8.06431708e-05, 0., 0., 0., 0.,
          -4.66305301e-06, -1.40757591e-04, 1.81261683e-04,
          5.49662509e-04, -3.77209130e-04, -2.20031638e-04,
          4.83669683e-05, -4.75461187e-04, -1.03761058e-03,
          -4.75409906e-04, -7.69198014e-05, 1.33802881e-04,
          3.28499911e-04, 3.46615765e-04, 2.90402677e-04, 3.34266195e-04,
          0., 0., 0., 0., -3.26759837e-05, -3.51535273e-04,
          -2.26351665e-04, 1.21810474e-04, -1.07937536e-04,
          9.53734125e-05, -5.09583770e-05, -8.23077280e-04,
          -9.34615440e-04, -5.30870224e-04, -4.62057069e-04,
          -5.59016247e-04, -4.09993780e-04, -3.25781330e-05,
          2.50878540e-04, 2.51657999e-04, 0., 0., 0., 0.,
          -5.53619611e-06, -3.15686848e-05, -3.10887117e-05,
          5.61059220e-04, 2.31744411e-06, 3.92933107e-05, 1.95750239e-04,
          1.07153155e-05, -4.17205069e-04, -3.91972368e-04,
          7.07948857e-05, -5.21358859e-04, -4.77351459e-05,
          2.39859379e-04, 1.19750046e-04, 4.21004952e-05, 0., 0., 0., 0.,
          1.82123567e-05, 2.94552301e-04, 4.15279763e-04, 4.55548085e-04,
          4.60708834e-04, 9.95693146e-04, 9.05435183e-04, 4.18615062e-04,
          -5.03741030e-04, -2.25105978e-04, 2.15573556e-04,
          -3.57877871e-04, -2.43154500e-04, -2.64685641e-05,
          -4.32686757e-05, -2.12570058e-06, 0., 0., 0., 0.,
          2.24152100e-05, 3.22193140e-04, 5.86662267e-04, 4.75529087e-04,
          3.64510430e-04, 4.90312988e-04, 1.14812376e-03, 2.66557501e-04,
          3.24846478e-04, 7.73553562e-04, 2.09833561e-05,
          -3.80156300e-04, -6.11790572e-04, -1.83538083e-04,
          -7.52498017e-05, -4.67654127e-06, 0., 0., 0., 0.,
          2.18679929e-06, 1.99969727e-04, 3.82632366e-04, 5.94274388e-05,
          5.25302785e-05, 2.31078870e-04, 5.41219197e-04, 4.73708904e-04,
          6.52662129e-04, 4.77127614e-04, -7.96258537e-05,
          -2.92263547e-04, -6.44261949e-04, -2.43446193e-04,
          -3.27357920e-05, -4.25140115e-06, 0., 0., 0., 0.,
          1.09339965e-06, 1.86676825e-05, -1.01252568e-04,
          -2.06483019e-04, -2.12431099e-04, -1.76582660e-04,
          -2.75205501e-04, -2.51305930e-04, 1.82458025e-04,
          4.61744494e-05, 1.04938563e-05, -8.30970566e-06,
          -7.59400937e-05, -4.86520876e-05, -4.78068205e-06,
          -2.62937510e-06, 0., 0., 0., 0., 0., 0., 0., -1.45810800e-05,
          -1.93617634e-05, 1.62240794e-05, 5.74996375e-05,
          8.34253588e-05, 5.37348278e-05, -5.30724310e-06,
          -1.16474175e-05, 0., 0., 0., -1.50591486e-05, -8.60522778e-06,
          0., 0., 0., 0., 0., 0., 0., 0., 0., 0., 0., 0., 0., 0., 0., 0.,
          0., 0., 0., 0., 0., 0. ]
      - [ 0., 0., 0., 0., 0., 0., 0., 0., 0., 0., 0., 0., 0., 0., 0., 0.,
          0., 0., 0., 0., 0., 0., 0., 0., 0., 0., 0., 0., 0., 0., 0., 0.,
          0., 0., 0., 0., 0., 0., 0., 0., 0., 0., 0., 0., 0.,
          -4.69081388e-05, -1.54697063e-05, 5.93163531e-05,
          5.45165349e-05, 9.13307886e-05, 8.10089477e-05, 1.85869416e-04,
          4.81601106e-04, 3.03365523e-04, -2.27274824e-04,
          -1.03428669e-04, -1.24865273e-05, 1.84399357e-06, 0., 0., 0.,
          0., 0., 0., 0., -3.59426456e-04, -2.55447376e-04,
          1.56460854e-04, 6.62421589e-05, 2.66940740e-04, 4.78879578e-04,
          5.94547193e-04, -1.47361803e-04, -2.74669321e-04,
          -4.85833210e-04, -6.30497758e-04, 2.24371237e-04,
          2.81584798e-04, 0., 0., 0., 0., 0., 0., 0., -2.80174805e-04,
          -4.16263239e-04, -6.46908826e-04, -6.85153878e-04,
          -2.09753911e-04, -3.93085007e-04, 2.72076886e-05,
          7.48156803e-04, 6.85892010e-04, -1.16278963e-04,
          -5.17703360e-04, -2.16181244e-04, -1.43687721e-04,
          -7.00122255e-05, 0., 0., 0., 0., 0., 1.72461496e-05,
          -2.78378161e-06, -4.05003520e-04, -6.10146199e-05,
          -1.63861230e-04, 8.49196629e-04, 3.13708792e-04,
          2.11530831e-04, 5.94940386e-04, 2.41526141e-04,
          -6.37491525e-04, -3.72511131e-04, -6.12350181e-04,
          -8.88427021e-04, -4.84099059e-04, -1.95498960e-05, 0., 0., 0.,
          0., 1.16268173e-04, 6.69207366e-05, -5.16271335e-04,
          -3.75673670e-04, -1.18622044e-03, 9.74614377e-05,
          8.15989973e-04, -1.65525402e-04, 7.10622815e-04,
          4.78789967e-04, 3.87474982e-04, 1.07844040e-04, 2.46935582e-04,
          -8.80457810e-04, -6.06161775e-04, -6.98210570e-05, 0., 0., 0.,
          2.21478676e-05, 1.53013520e-04, -2.09478036e-04,
          1.36438524e-04, -8.10137833e-04, -1.15737005e-03,
          -2.24720527e-04, -2.92362063e-04, -1.20419962e-03,
          1.73162771e-04, 9.35359625e-04, 1.58579706e-03, 9.59486468e-04,
          7.61445554e-04, -2.33855826e-05, -1.07823587e-04,
          -7.55844030e-06, 0., 0., 0., 6.61988961e-05, 1.02494196e-04,
          -1.65951151e-05, 7.04573526e-04, 2.85471819e-04,
          2.09510777e-04, -4.13857488e-05, -1.20349566e-03,
          -1.45366346e-03, -2.61626032e-04, 5.35328465e-04,
          1.24154519e-03, 1.55640277e-03, 6.27414440e-04, 4.45898942e-04,
          -1.42320241e-05, -4.08642290e-06, 0., 0., 0., 1.34873189e-04,
          1.72939865e-04, 5.29579003e-04, 2.50951762e-05,
          -6.92492904e-05, 7.87448444e-05, -9.12242511e-04,
          -1.62572041e-03, -1.65004493e-03, -9.71927802e-05,
          4.98755078e-04, 8.38283013e-05, 7.01660174e-04, 8.54372163e-04,
          6.68435299e-04, 0., 0., 0., 0., 0., 4.40873671e-04,
          9.66921390e-04, 9.88475513e-04, -1.10781845e-03,
          5.86055918e-04, 5.30374760e-04, -5.83114685e-04,
          -1.82756875e-03, -1.69643830e-03, 5.29536512e-04,
          6.38819241e-04, 4.32783825e-04, 3.00135085e-04, 6.65054133e-04,
          5.19984867e-04, 0., 0., 0., 0., 3.26447152e-05, 5.41412621e-04,
          1.08012650e-03, 9.97741707e-04, 2.71434314e-04, 5.50730038e-04,
          6.13494703e-05, -6.55627111e-04, -1.69103162e-03,
          -6.62467733e-04, 3.94726812e-04, 3.01793596e-04,
          3.27678194e-04, -1.62306853e-04, 8.52776226e-04,
          -7.29241656e-05, 0., 0., 0., 0., 3.20170620e-05,
          3.03861016e-04, 9.25040862e-04, 8.17473629e-04, 1.53435266e-03,
          1.36181770e-03, 1.30159329e-04, -8.67046765e-04,
          -6.85593986e-04, -9.78997414e-05, -8.17572509e-05,
          3.14792997e-04, 3.52420786e-04, 3.78269906e-04, 8.63983470e-04,
          -4.82785952e-04, 0., 0., 0., 0., -5.55110528e-05,
          -8.57982377e-05, 6.48168323e-04, 1.51613000e-04,
          6.41470077e-04, 1.24398759e-03, 5.31635014e-05,
          -5.33248007e-04, -7.75776221e-04, -2.74688384e-04,
          5.77591592e-04, 3.84332001e-04, 2.39553352e-04, 7.90099730e-04,
          -4.74011060e-04, -2.59754743e-04, 0., 0., 0., 0.,
          -4.75466630e-04, -4.94505512e-05, 2.14780259e-04,
          -5.27345575e-04, -8.93954304e-04, 8.29855329e-04,
          5.21857291e-04, 6.34592507e-05, -4.56082169e-04,
          -8.68071947e-05, 4.53797547e-04, -5.56688701e-06,
          3.85241856e-06, -4.63041913e-04, -5.03859657e-04, 0., 0., 0.,
          0., 0., -4.79831739e-04, 2.05396409e-05, -6.26360197e-05,
          -4.41733864e-04, -4.02230828e-04, -1.37096082e-04,
          4.31602180e-04, -1.70484403e-04, 2.44383264e-04,
          2.33477349e-05, -3.80375655e-04, -8.19677312e-04,
          -4.97092144e-04, -1.83596116e-04, 0., 0., 0., 0., 0., 0.,
          -6.22542871e-07, 3.45994078e-04, 5.37417596e-04,
          -1.12637819e-04, 3.67272354e-04, 3.06708680e-04,
          4.88644582e-04, 5.11185208e-04, -2.12287734e-04,
          -5.97581791e-04, -5.63385896e-04, 2.17892193e-05,
          1.32427827e-04, 0., 0., 0., 0., 0., 0., 0., 0., 1.25064280e-05,
          3.19113460e-05, -1.54121168e-04, -2.88268813e-04,
          -1.78043429e-05, 5.05462122e-05, 1.94163702e-04,
          2.01460018e-04, 1.12987582e-05, 4.64897421e-05, 8.51713557e-05,
          -1.24705457e-06, 0., 0., 0., 0., 0., 0., 0., 0., 0., 0., 0.,
          -2.18354871e-05, 9.85517108e-05, 4.67100239e-04,
          5.49249875e-04, 1.67611302e-04, -1.27594045e-04,
          -5.81693130e-05, -1.37176003e-05, 0., 0., 0., 0., 0., 0., 0.,
          0., 0., 0., 0., 0., 0., 0., 0., 0., -3.74116371e-06,
          -1.53803394e-05, -1.20548611e-05, 0., 0., 0., 0., 0., 0., 0. ]
      - [ 0., 0., 0., 0., 0., 0., 0., 0., 0., 0., 0., -1.59378051e-05,
          -2.98833857e-06, 0., 0., 0., 0., 0., 0., 0., 0., 0., 0., 0.,
          0., 0., 0., 0., -2.91262791e-06, -2.43383965e-06,
          -1.39455797e-05, -1.41047363e-04, -4.01128025e-04,
          -2.21086928e-04, -4.80449171e-06, 0., 0., 0., 0., 0., 0., 0.,
          0., 0., -8.99170936e-06, -5.25007526e-05, -9.70259425e-05,
          -4.38642746e-04, 4.83536096e-05, -5.77140367e-04,
          -1.59813699e-05, 6.32663068e-05, 2.24740739e-04,
          -5.30238671e-04, -6.46858825e-04, -3.43370688e-04,
          -1.81942756e-04, 0., 0., 0., 0., 0., 0., 0., -1.11754096e-04,
          -8.03599542e-05, -2.12104060e-05, -3.06627553e-05,
          4.83062438e-04, -1.35394104e-04, 7.57933594e-04,
          8.57498613e-04, 3.15957324e-04, 3.48587091e-05,
          -1.90065257e-04, -1.44932812e-04, -2.20119000e-05,
          2.62961312e-05, 0., 0., 0., 0., 0., 0., -1.88825885e-04,
          -1.40739648e-04, -2.14415471e-04, 6.20662991e-04,
          -3.48631904e-04, -6.50298716e-06, 5.31134603e-04,
          6.99812605e-04, 4.96125140e-05, -4.26572806e-05,
          4.83850017e-04, 5.74500242e-04, 2.74267280e-04, 2.48669276e-05,
          0., 0., 0., 0., 0., -4.88121368e-05, -2.47914257e-04,
          -1.34443850e-04, -3.45893495e-05, 3.40681036e-05,
          -6.45530643e-04, 1.41638520e-04, -1.07606436e-04,
          2.25875716e-04, 9.35943739e-04, 1.35018153e-03, 1.07317057e-03,
          5.03119547e-04, 1.17233511e-04, -1.09689126e-05, 0., 0., 0.,
          0., 0., -9.12016185e-05, -2.36353502e-04, -6.24105742e-05,
          -9.18906881e-05, -3.08767514e-04, 1.32806555e-04,
          4.63757839e-04, 3.62173421e-04, -2.45114847e-04,
          1.63368217e-03, 2.07539857e-03, 3.17662867e-04, 2.92262353e-04,
          -1.83892407e-04, -1.87941350e-05, 0., 0., 0., 0., 0.,
          9.87802923e-06, -5.98652332e-05, 1.14629125e-04,
          -2.26290518e-04, -2.77906714e-04, 8.01223563e-04,
          4.67884471e-04, 4.01594938e-04, 1.62801298e-04, 1.62036263e-03,
          1.11288973e-03, 3.25626679e-05, 8.42420908e-04, 6.98512013e-04,
          2.83402333e-04, 0., 0., 0., 0., 0., -1.11242989e-04,
          1.77894690e-04, 1.10416018e-04, -5.73138765e-04,
          -3.15583224e-04, 6.53997471e-04, -1.26949366e-04,
          -4.67168895e-04, -4.26909915e-04, 3.31955998e-05,
          1.86879028e-04, 5.41217392e-04, 8.21933441e-04, 2.80292181e-04,
          -1.98835580e-04, 0., 0., 0., 0., 0., -1.37788273e-04,
          4.29468404e-04, 1.15551193e-04, -6.38364407e-04,
          6.62921884e-05, -8.25625975e-05, -5.93236007e-04,
          -9.08480026e-04, -9.56199015e-04, -1.05262548e-03,
          3.48819827e-04, 2.81697343e-04, 8.53873149e-04, 7.79680267e-04,
          -8.61889712e-05, -5.44743307e-05, 0., 0., 0., 0.,
          5.30080724e-05, 4.73078777e-04, -1.23926648e-05,
          -8.90784780e-04, -1.63276680e-04, -5.90837561e-04,
          -2.99969717e-04, -9.59830417e-04, -1.40611280e-03,
          -6.55979617e-04, 1.11703423e-03, -1.93876003e-05,
          6.29155722e-04, 7.70026294e-04, 4.33577079e-04,
          -2.66037441e-05, 0., 0., 0., -1.19246379e-05, 6.54937685e-05,
          4.08648957e-05, 3.77541059e-04, -7.46056612e-04,
          -4.65179386e-04, -5.86090377e-04, -5.37250191e-04,
          -1.34662644e-03, -1.09321170e-03, -8.57820760e-06,
          1.01422530e-03, -1.52850771e-04, 1.56038965e-04,
          -1.10811714e-04, 3.81154270e-04, 0., 0., 0., 0.,
          -7.94975904e-07, 1.79788272e-04, 9.38363883e-05,
          -1.10298342e-05, -6.13332551e-04, 2.45955947e-04,
          2.84608454e-04, -1.85467507e-04, -9.24799650e-04,
          -9.01571824e-04, -1.89881262e-04, -2.00428665e-04,
          -3.81975988e-04, -8.52456287e-05, -4.80867857e-05,
          1.22354730e-04, -7.47084641e-06, 0., 0., 0., 0.,
          1.12490146e-04, 4.99727976e-05, 2.23695111e-04,
          -4.79485607e-04, -1.25010672e-04, -3.06543196e-04,
          3.90733068e-04, 4.65152581e-04, -1.47114421e-04,
          -6.58385979e-04, -2.99884734e-04, 5.13099330e-05,
          -4.27896121e-05, 1.92500098e-04, 3.14633508e-05,
          -1.49416928e-06, 0., 0., 0., 1.62785564e-05, 3.32680065e-04,
          4.39569587e-04, 8.11705904e-05, 1.38138319e-04, 9.68923443e-04,
          -2.45259347e-04, -2.85476883e-04, -5.71499229e-04,
          -4.73246269e-04, -8.23191891e-04, -3.38586105e-04,
          9.23604093e-05, -4.40917283e-05, -1.42216639e-04,
          -9.57168158e-05, -5.43292163e-06, 0., 0., 0., 2.00351460e-05,
          3.04866931e-04, 6.74201467e-04, 9.22186518e-05,
          -4.44533129e-04, -4.31044900e-04, -5.46750787e-04,
          -5.92207769e-04, 2.11389357e-04, 4.26219980e-04,
          -5.69157477e-04, -6.06427784e-04, -1.24343249e-04,
          6.50996226e-05, 1.10963711e-05, -1.08658433e-05, 0., 0., 0.,
          0., 0., 1.23669059e-04, 3.30893439e-04, 3.72914918e-04,
          1.30807370e-04, 3.01464286e-04, 9.38073150e-04, 1.13627478e-03,
          1.00229098e-03, 2.26264674e-04, -1.16388714e-04,
          -3.27324000e-04, -1.51935179e-04, 2.36188353e-05, 0., 0., 0.,
          0., 0., 0., 0., 6.26098335e-06, 2.37917375e-05, 2.37917375e-05,
          1.78720184e-05, 5.48610915e-05, 1.59016796e-04, 2.51342717e-04,
          2.05544406e-04, 1.16164716e-04, 1.87702099e-05,
          -4.74288063e-05, -1.80924453e-05, 0., 0., 0., 0., 0., 0., 0.,
          0., 0., 0., 0., 0., 0., 0., 0., 0., 0., 0., 0., 0., 0., 0., 0.,
          0., 0., 0., 0., 0., 0., 0., 0., 0., 0., 0., 0., 0., 0., 0., 0.,
          0., 0., 0., 0., 0., 0. ]
      - [ 0., 0., 0., 0., 0., 0., 0., 0., 0., 0., 0., 0., 0., 0., 0., 0.,
          0., 0., 0., 0., 0., 0., 0., 0., 0., 0., 0., 0., 0., 0., 0., 0.,
          0., 0., 0., 0., 0., 0., 0., 0., 0., 0., 0., 0., 0., 0.,
          5.50037339e-06, 2.10189119e-05, 2.19356407e-05, 9.11347615e-06,
          1.97664540e-05, 1.01875514e-04, 1.51761938e-04, 2.97193546e-05,
          4.37147349e-07, 1.55077191e-06, 2.12601049e-06, 1.01238598e-07,
          0., 0., 0., 0., 0., 0., 0., 6.99007887e-06, 4.83788199e-06,
          7.16651703e-05, -7.31763612e-06, 1.55768677e-04,
          4.66778089e-04, 7.25971942e-04, 5.77932980e-04, 1.61020827e-04,
          2.33893497e-05, 2.52331902e-05, 2.56008680e-05, 1.34454604e-05,
          0., 0., 0., 0., 0., -1.37507650e-05, -4.29711399e-05,
          -1.38080533e-04, -1.59359508e-04, -1.54008856e-04,
          -4.16942057e-05, 5.37408923e-04, 5.05575968e-04,
          5.90617303e-04, 7.70835497e-04, 4.49592713e-04, 1.09482382e-04,
          9.60010220e-06, 1.59544616e-05, 2.24348860e-05, 0., 0., 0., 0.,
          -1.05780837e-05, -1.71957974e-04, -3.36882047e-04,
          -3.78777157e-04, -4.10777924e-04, -2.56918807e-04,
          1.91497034e-04, 4.83504351e-04, -1.16853425e-05,
          -2.08907717e-04, 1.46465056e-04, -4.52897293e-05,
          -2.05484626e-04, -1.19633522e-04, -2.39654291e-05,
          2.09816099e-05, 0., 0., 0., 0., -9.49315581e-05,
          -4.68950282e-04, -6.01097767e-04, -7.01743586e-04,
          -5.62576752e-04, -1.37850046e-04, 2.16442204e-04,
          2.88855925e-04, 2.62681162e-04, -1.03264385e-04,
          -8.31794532e-05, -1.71229651e-04, -4.61648771e-04,
          -2.76363116e-05, 5.00712231e-05, 8.96191923e-05, 0., 0., 0.,
          0., -1.22243116e-04, -4.95635264e-04, -4.39728465e-04,
          -1.47115163e-04, -2.38867779e-05, -2.85137503e-04,
          -7.22819959e-06, 1.63484801e-05, 1.05369349e-04,
          -3.19837593e-04, -2.91447039e-04, 1.57772054e-04,
          -1.17236523e-04, -3.29360992e-05, 1.21538076e-04,
          9.08498114e-05, 0., 0., 0., 0., -3.89984525e-05,
          -3.34890268e-04, -1.41785160e-04, 1.55603455e-04,
          -3.08695890e-04, -3.81022634e-04, 1.19051714e-04,
          1.34959017e-04, -4.31002001e-04, -7.69257720e-04,
          -4.78295988e-04, -1.80027622e-04, 5.56037730e-06,
          1.40699689e-04, 7.37592127e-05, 5.27266093e-06, 0., 0., 0.,
          7.82121424e-06, -1.97178626e-04, -3.45844601e-04,
          -4.41474731e-05, -4.00899189e-05, -3.31088493e-04,
          3.12182492e-05, 4.78371687e-04, 1.89795581e-04,
          -3.65108572e-04, -6.79307384e-04, -3.56517179e-04,
          -7.41918484e-05, -4.24245882e-05, 1.88550548e-04,
          2.09339370e-04, 1.69986044e-04, 0., 0., 0., 8.23285745e-07,
          -2.12127459e-04, -9.12386386e-05, 4.20588971e-04,
          3.25954548e-04, -5.32261038e-05, 5.78319130e-04,
          4.97451925e-04, -2.26247401e-04, -4.69592836e-04,
          -8.06930242e-04, -3.55425494e-04, -2.77415762e-04,
          1.19612363e-04, -3.74424708e-05, 3.16251622e-04,
          3.38628888e-04, 0., 0., 0., 0., -8.39702807e-06,
          2.37023982e-04, 7.46620412e-04, 7.91053579e-04, 1.47467683e-04,
          4.24959377e-04, 1.99903734e-04, -4.21226083e-04,
          -5.52793150e-04, -7.38731644e-04, -1.03057537e-04,
          -1.01301637e-04, 1.45204263e-04, 9.06119749e-05,
          3.65918531e-04, 4.10727138e-04, -4.67709742e-06, 0., 0., 0.,
          2.29959405e-05, 1.14820927e-04, 4.93462838e-04, 6.71346090e-04,
          4.66031313e-04, 5.83451067e-04, 3.72178678e-04,
          -1.90102903e-04, -2.94759549e-04, -4.34467307e-04,
          -3.52408424e-05, -1.93597225e-04, 1.80293588e-04,
          4.75562265e-04, 4.90235107e-04, 2.13190942e-04,
          -7.34972491e-06, 0., 0., 0., 7.66175253e-06, 2.29126948e-04,
          5.48680488e-04, 8.47473450e-04, 5.65523806e-04, 5.97241102e-04,
          1.66442915e-04, -1.05748273e-04, 9.71992413e-05,
          -7.72023486e-05, 1.80066563e-04, 7.13208210e-05,
          4.42577875e-04, 4.44460748e-04, 1.29332955e-04,
          -8.27377953e-05, 0., 0., 0., 0., 1.06002767e-06,
          2.84894457e-04, 7.14292866e-04, 6.49888651e-04, 6.06540591e-04,
          5.51371253e-04, 1.33513066e-04, -9.63016573e-05,
          -3.23465123e-04, -8.98060316e-05, 9.75989533e-05,
          -1.78016362e-05, 2.06629673e-04, -6.53501047e-05,
          -5.70047523e-05, -1.95009179e-05, 0., 0., 0., 0.,
          9.71549071e-07, 1.00640733e-04, 5.73864381e-04, 3.46670335e-04,
          5.66935196e-05, 2.67750220e-05, 1.90984749e-04, 1.34607981e-04,
          3.87708242e-05, 2.41835864e-04, -1.19878532e-04,
          2.56814004e-04, 2.32329170e-04, -3.44121043e-04,
          -3.87039290e-05, 0., 0., 0., 0., 0., 5.73755869e-07,
          -1.22767242e-05, 5.63164213e-06, -2.11881794e-04,
          -7.03609840e-05, 1.06138505e-04, 2.69733748e-04,
          7.30672677e-04, 2.12899307e-04, -3.65755732e-05,
          6.15492827e-05, 4.33939014e-04, -1.61873526e-04,
          -4.46998165e-04, -2.31719714e-05, 0., 0., 0., 0., 0., 0.,
          -1.38869189e-04, -3.94157658e-04, -4.04191756e-04,
          -1.75076595e-04, -1.62840748e-04, -6.18119666e-05,
          1.89814498e-04, 3.87371838e-05, 2.73014506e-04, 7.51857442e-05,
          -1.79213857e-05, -3.52172472e-04, -4.48399427e-04,
          -1.23583850e-05, 0., 0., 0., 0., 0., 0., -1.34623333e-04,
          -3.39787977e-04, -2.58257060e-04, -7.52499036e-05,
          -3.10260482e-04, -3.10350879e-04, -6.00235080e-06,
          -2.96070139e-05, -3.13037781e-05, -2.45518895e-04,
          -1.22540543e-04, -2.01661256e-04, -5.46123192e-04,
          -2.43792267e-04, -1.08135864e-05, 0., 0., 0., 0., 0.,
          -2.73342066e-05, -4.98324880e-05, -2.89552954e-05,
          -5.34525452e-06, -4.47521488e-05, -8.44295791e-05,
          -1.87658607e-05, -1.57089671e-05, -1.05272309e-04,
          -1.61168704e-04, -2.27998753e-05, -3.89295747e-05,
          -3.36225261e-04, -1.54127207e-04, -1.54479812e-06, 0., 0. ]
      - [ 0., 0., 0., 0., 0., 0., 0., 0., 0., 0., 0., 0., 0., 0., 0., 0.,
          0., 0., 0., 0., 0., 0., 0., 0., 0., 0., 0., 0., 0., 0., 0., 0.,
          0., 0., 0., 0., 0., 0., 0., 0., 0., 0., 0., 0., 0.,
          7.22489233e-07, 9.75360490e-06, 1.47354303e-05,
          -1.81642336e-05, -1.08994900e-04, -2.84874928e-04,
          -1.94581749e-04, 4.07587831e-05, 7.79358234e-05,
          5.89209594e-05, 1.18179714e-05, 1.34625020e-06, 0., 0., 0., 0.,
          0., 0., 0., 0., 1.37272955e-05, 5.64184920e-05,
          -1.32415671e-05, -2.55412247e-04, -1.18394266e-04,
          -9.37102159e-05, 2.57753636e-05, 2.14189742e-04,
          6.71898524e-05, 1.65209363e-04, 2.25899828e-04, 1.42041987e-04,
          1.41356268e-05, 0., 0., 0., 0., 0., 0., 0., -5.86534998e-06,
          -1.04474593e-05, -2.68818985e-04, -4.05366969e-04,
          -8.01435235e-05, -4.18894961e-05, 8.24380622e-05,
          2.01981267e-04, -4.93138441e-06, -3.87180044e-05,
          1.16899100e-04, 4.78284310e-05, -3.45501358e-05, 0., 0., 0.,
          0., 0., -8.35102924e-07, -4.62813878e-05, -5.72004938e-05,
          -2.93208956e-04, -5.36999432e-04, -3.23507003e-04,
          2.22577451e-04, 2.39038505e-04, -4.78202674e-06,
          7.21605174e-05, -6.09573763e-05, -1.15544448e-04,
          4.37899289e-05, -2.55372317e-04, -2.22331480e-04, 0., 0., 0.,
          0., 0., -4.46142585e-05, -1.18378099e-04, -2.01006376e-04,
          -2.06869343e-04, -4.76958463e-04, -2.52770958e-04,
          3.84574611e-04, 2.25944517e-04, -1.26437968e-04,
          3.15743615e-04, 2.50448065e-04, 2.14951084e-04, 8.72290329e-05,
          -2.47526681e-04, -1.81179290e-04, -1.01238564e-08, 0., 0., 0.,
          -3.43338161e-06, -9.50113754e-05, -1.92546577e-05,
          -1.24132930e-04, 2.39840258e-04, -1.35388822e-04,
          6.42468585e-05, 1.42694349e-04, 1.44517937e-04,
          -1.65317309e-04, 3.72473383e-04, 4.74812958e-04,
          -8.10251513e-05, -9.01063759e-05, -1.13599315e-04,
          -4.96660614e-05, -2.96981416e-05, 0., 0., 0., -4.49891377e-06,
          -5.64468974e-05, 4.31928020e-05, 2.04987984e-04,
          1.45323458e-04, -5.07573168e-05, 3.18718405e-04,
          -1.28279076e-04, -4.62432654e-04, -5.00112423e-04,
          1.22970814e-04, 3.83153063e-04, 8.64767571e-05, 9.71060435e-05,
          1.13070622e-04, 6.24627137e-05, -1.52112434e-05, 0., 0., 0.,
          -3.07820414e-06, 2.28444951e-05, 1.03516861e-04,
          3.76192300e-04, 1.10665031e-04, 2.11023449e-04, 3.98830962e-05,
          -4.12032503e-04, -1.42702332e-03, -1.48166320e-03,
          -3.77173565e-04, 4.51418542e-04, 3.62259423e-04,
          2.55372986e-04, 3.83671810e-04, 1.42027100e-04, 0., 0., 0., 0.,
          0., 1.52934095e-04, 2.95029546e-04, 4.50190069e-04,
          -1.38369898e-04, 1.38691476e-05, -5.28853678e-04,
          -6.10521005e-04, -1.52999663e-03, -1.86871551e-03,
          -6.00245781e-04, 2.01152841e-04, 3.88746441e-04,
          4.23049496e-04, 4.83425363e-04, 1.78975781e-04, 0., 0., 0., 0.,
          -1.18026207e-06, 1.63748322e-04, 3.75978823e-04,
          4.92916093e-04, 1.23562058e-04, 3.34061951e-05,
          -4.58562339e-04, -1.14447286e-03, -1.25079299e-03,
          -1.30327709e-03, -4.11707413e-04, 1.74880406e-04,
          2.79830885e-04, 1.93435219e-04, 2.09872262e-04, 1.36791088e-04,
          0., 0., 0., 0., -4.24894324e-06, 5.25636242e-05,
          3.48619855e-04, 4.79183043e-04, 1.07762135e-04, 2.92160112e-04,
          -1.42272111e-04, -1.03084068e-03, -8.18924047e-04,
          -1.89917671e-04, 3.89301305e-04, 2.60117959e-04,
          2.89516553e-04, 3.07331764e-04, 6.36409604e-05,
          -4.87766956e-05, 0., 0., 0., 0., 0., -3.79000412e-05,
          1.67160964e-04, 4.35059133e-04, 4.06658983e-05, 5.53658640e-04,
          3.24449036e-04, 3.01229975e-05, -7.64174983e-05,
          6.04539309e-05, 3.34000535e-04, 1.28424625e-04, 2.28175471e-04,
          4.01639700e-04, -4.22009691e-07, -1.63478617e-04, 0., 0., 0.,
          0., 7.57036423e-06, -5.50005134e-05, 7.33375491e-05,
          3.42630083e-04, 1.39119744e-04, 6.19282306e-04, 6.83222490e-04,
          2.77934043e-04, 2.89750344e-04, 3.54904711e-04, 1.36768804e-05,
          -3.47673194e-04, 3.28469498e-04, 6.74963958e-05,
          -2.25746291e-04, -1.30706787e-04, 0., 0., 0., 0.,
          1.07700016e-05, 8.29903365e-05, 1.53688801e-04,
          -1.05081788e-04, 1.88360296e-04, -5.93488658e-05,
          1.38617499e-04, -2.02082374e-04, 3.42535677e-05,
          2.08520258e-04, -4.84359014e-04, -2.22742587e-04,
          -6.52575327e-05, -1.85734098e-04, -1.82433258e-04,
          -3.15702600e-05, 0., 0., 0., 0., 0., 1.24890794e-04,
          3.91247915e-04, -5.20283429e-05, -4.18650343e-05,
          -1.53580448e-04, -1.01134363e-04, 2.41481597e-04,
          4.38323710e-04, 1.15404648e-04, -8.16516258e-05,
          -2.37155837e-04, -2.56367668e-04, -5.79330699e-05,
          -2.61899604e-05, -7.41859412e-06, 0., 0., 0., 0., 0.,
          1.06518673e-05, 2.98350697e-05, -2.38402026e-05,
          -2.34770865e-04, -1.17886404e-04, 3.34981223e-07,
          2.10151105e-04, 1.94436623e-04, 1.09745502e-04, 2.87090024e-05,
          -5.59389482e-05, -4.31973713e-05, -1.22493066e-05,
          -3.53677160e-06, 0., 0., 0., 0., 0., 0., 0., 0.,
          -1.14726049e-06, -2.87976491e-05, 1.69709892e-05,
          1.58540730e-04, 1.88390681e-04, 1.17328542e-04, 0., 0., 0., 0.,
          0., 0., 0., 0., 0., 0., 0., 0., 0., 0., 0., 0., 0., 0., 0., 0.,
          0., 0., 0., 0., 0., 0., 0., 0., 0. ]
      - [ 0., 0., 0., 0., 0., 0., 0., 0., 0., 0., 0., 0., 0., 0., 0., 0.,
          0., 0., 0., 0., 0., 0., 0., 0., 0., 0., 0., 0., 0., 0., 0., 0.,
          0., 0., 0., 0., 0., 0., 0., 0., 0., 0., 0., 0., 0., 0., 0., 0.,
          -3.17817035e-06, 5.48143689e-05, 1.02673977e-04,
          2.33222338e-04, 7.37745897e-04, 2.97959050e-04, 7.14421185e-05,
          1.15754883e-05, 0., 0., 0., 0., 0., 0., 0., 0., 0., 0.,
          6.98959484e-05, 2.42686656e-04, -8.41714209e-05,
          3.38610582e-04, 9.39699181e-04, 1.34300347e-03, 1.41550577e-03,
          6.76931057e-04, 5.47940843e-04, 2.26947101e-04, 4.39436590e-05,
          1.23206519e-06, 0., 0., 0., 0., 0., 0., 0., 7.94201185e-07,
          -5.51719240e-05, 2.73108279e-04, -1.44400838e-04,
          -6.18642225e-05, -6.87227934e-04, -6.39628386e-04,
          -3.01947526e-04, 8.88263967e-05, -1.15171257e-04,
          6.95965486e-04, 1.69666353e-04, 7.39239113e-06, 0., 0., 0., 0.,
          0., 0., 1.73857861e-05, -2.09194754e-04, -1.55652466e-04,
          -3.21277525e-06, -1.03758233e-04, 4.70512983e-04,
          1.75868936e-05, -1.11972018e-04, 2.61671084e-04,
          5.27518496e-05, -6.57327881e-04, 6.08343107e-04,
          2.85092799e-04, 4.64782424e-05, 0., 0., 0., 0., 0., 0.,
          -1.54306152e-04, -6.78727287e-04, -1.58585026e-04,
          3.83516635e-06, 3.23751243e-04, 9.55558848e-04, 7.36193731e-04,
          -1.83580531e-04, 3.68412206e-04, 1.88178616e-04,
          -5.78923791e-04, -6.10305324e-05, -3.86044558e-05,
          3.77628930e-05, 0., 0., 0., 0., 0., -8.24991002e-05,
          -5.01706731e-04, -5.38549153e-04, 9.16239587e-05,
          -3.13127122e-04, -8.47668271e-05, 4.20249999e-04,
          4.22067416e-04, -1.80949384e-04, 5.23376453e-04,
          3.45514651e-04, -1.16699914e-04, -3.13481607e-04,
          6.97375654e-05, 2.97019651e-05, 0., 0., 0., 0.,
          -2.56011444e-05, -4.28534549e-04, -5.58986794e-04,
          -3.82118480e-04, -7.66912417e-04, -7.37141701e-04,
          5.59106484e-05, 3.63661762e-04, -6.15410099e-05,
          -1.79776587e-04, 2.22746494e-05, -4.16233925e-05,
          -4.04506980e-04, 9.46723085e-05, 2.63307040e-04,
          4.03870145e-05, 0., 0., 0., 3.06077300e-06, -1.78246060e-04,
          -4.59873467e-04, -2.72686839e-06, -4.30940883e-04,
          -6.00578089e-04, 2.94936413e-04, -1.08672706e-04,
          -2.15858134e-04, -7.23682053e-04, -1.03282114e-03,
          -8.09765887e-04, -3.79472767e-04, -4.97477886e-04,
          2.55265564e-04, 2.68697215e-04, 6.22442676e-05, 0., 0., 0.,
          3.22186622e-07, -2.10548111e-04, -1.79757510e-04,
          7.96420616e-04, 1.75415145e-04, 1.52891036e-04, 8.59897234e-04,
          3.57546640e-04, -2.69365672e-04, -1.30005868e-03,
          -1.52348098e-03, -8.12113576e-04, -4.76336922e-04,
          -2.85723829e-04, 2.92185199e-04, 3.80329060e-04,
          1.41815864e-04, 0., 0., 0., 0., -8.75659607e-05,
          2.95167192e-05, 6.86472340e-04, 4.23444872e-04, 5.91745833e-04,
          4.37845767e-04, 3.11087642e-04, -5.67484240e-04,
          -1.39835500e-03, -1.21240423e-03, -2.81884832e-06,
          -2.69219920e-04, 3.00040585e-04, 2.28673816e-04,
          4.32444620e-04, 2.28382603e-04, 0., 0., 0., 0., 1.73165736e-05,
          3.12797842e-04, 4.82622912e-04, 5.79183921e-04, 7.76642817e-04,
          2.24465301e-04, 2.98820320e-04, -7.22567784e-04,
          -1.33167417e-03, -5.83785586e-04, -2.65043142e-04,
          -4.76711721e-05, -1.04644831e-04, 3.00330110e-04,
          4.15794464e-04, 1.58688505e-04, 0., 0., 0., 0., 2.85277056e-05,
          4.50191554e-04, 3.31101997e-04, 6.85128616e-04, 8.09238816e-04,
          3.91627633e-04, 1.10380752e-04, -4.48659353e-04,
          -2.58474378e-04, -2.36184191e-04, -3.84396873e-04,
          -4.02882943e-05, 2.01745061e-04, 6.61142403e-04,
          1.87267389e-04, 6.27547488e-05, 0., 0., 0., 0., 1.03925768e-05,
          4.56621376e-04, 1.56556605e-04, -2.72948091e-04,
          6.31606265e-04, 1.19562773e-03, 6.21082436e-04, 3.81806254e-04,
          -5.77823492e-04, -6.66214328e-04, -2.16614746e-04,
          -4.13752889e-04, 3.86285363e-04, 2.48935510e-04,
          -1.03246959e-04, 3.18170569e-05, 0., 0., 0., 0.,
          1.27313406e-05, 2.28718185e-04, 2.80463631e-04,
          -4.52911161e-04, 3.35715507e-04, 3.53482028e-04,
          2.85540387e-04, -3.62792343e-04, 1.66915615e-05,
          3.64489446e-04, -1.15280424e-03, 4.22594676e-05,
          1.50567648e-04, -2.47422140e-04, -1.44486810e-04,
          1.91640029e-05, 0., 0., 0., 0., 8.62445631e-06, 9.56865115e-05,
          3.51364084e-04, 4.23175334e-05, 3.18097242e-04, 1.26525830e-03,
          1.11056864e-03, 1.31961645e-03, 1.06901396e-03,
          -4.89232247e-04, -7.95569271e-04, 1.92854146e-04,
          -2.75678613e-04, -2.93304358e-04, -2.04345080e-04,
          -2.45010360e-05, 0., 0., 0., 0., 0., 4.92826075e-06,
          1.53654655e-05, -1.94104305e-05, -8.75881306e-05,
          1.28227266e-05, -4.00298304e-05, 3.54085525e-04,
          6.19496510e-04, -1.89171216e-04, -6.51682494e-04,
          -3.45693988e-04, -4.10189561e-04, -1.97014597e-04,
          -1.92744061e-04, -4.09042186e-05, 0., 0., 0., 0., 0., 0., 0.,
          -1.40529437e-05, -8.03204530e-05, -7.23456978e-05,
          -2.08834565e-04, -2.58461252e-04, -7.52862397e-05,
          4.68726867e-05, -7.64484284e-05, -1.83076205e-04,
          -2.07071847e-04, -3.12238735e-05, -3.85142303e-05,
          -1.25395163e-05, 0., 0., 0., 0., 0., 0., 0., -1.44132764e-06,
          -1.76562626e-05, -3.96365067e-06, -7.65453933e-06,
          -9.76821175e-05, -5.82845460e-05, 0., 0., 0., 0., 0., 0., 0.,
          0., 0. ]
      - [ 0., 0., 0., 0., 0., 0., 0., 0., 0., 0., 0., 0., 0., 0., 0., 0.,
          0., 0., 0., 0., 0., 0., 0., 0., 0., 0., 0., 0.,
          -2.51716818e-04, -2.78686464e-04, 0., 0., 0., 0., 0., 0., 0.,
          0., 0., 0., 0., 0., 0., 0., 0., -9.72399284e-05,
          -2.51180289e-04, -3.20115185e-04, -2.80291482e-04,
          3.65504093e-05, 1.33183331e-03, 5.33466635e-04,
          -3.08523362e-04, 1.56735914e-04, 1.53281158e-04,
          4.58506584e-05, 2.44301782e-06, 0., 0., 0., 0., 0., 0., 0.,
          -1.02466314e-04, -2.91188509e-04, 3.95601346e-05,
          -1.11972739e-04, -1.05087110e-03, -1.26044138e-03,
          -5.15460735e-04, -6.63639803e-04, -7.54450681e-04,
          3.49655238e-05, 2.38197215e-04, 1.04606042e-04, 2.62086658e-04,
          7.11248285e-05, 0., 0., 0., 0., 0., 0., -3.59829806e-04,
          -5.70993463e-04, 5.05756878e-04, -3.53373151e-04,
          -1.64991897e-03, -1.00422103e-03, -6.95100462e-04,
          -5.53478254e-04, -6.69140543e-04, 5.62617861e-05,
          2.87475763e-04, 5.60412533e-04, 5.86571579e-04, 1.32229019e-04,
          0., 0., 0., 0., 0., -3.14575009e-04, -8.19367880e-04,
          -6.99948461e-04, -1.13692554e-03, -1.85802241e-03,
          -1.28269196e-03, -4.09163214e-04, -4.87660087e-04,
          3.40796221e-04, 1.38088712e-04, 3.87570908e-04, 1.95950252e-05,
          3.84773710e-04, 2.14851927e-04, -9.77692889e-06, 0., 0., 0.,
          0., 0., -6.09958719e-04, -1.41717796e-03, -6.29618298e-04,
          -7.25268910e-04, -1.09043752e-03, -1.30889821e-03,
          -3.13676632e-04, 9.14907141e-04, 8.64511414e-04,
          -6.97916665e-04, -6.07995753e-05, 8.38435153e-05,
          -4.11044894e-05, -1.85357698e-04, -1.36450590e-05, 0., 0., 0.,
          0., 0., -2.33197698e-05, 4.76534042e-04, 8.40023917e-04,
          7.80874805e-04, 3.92610847e-04, 2.99737818e-04, 8.41443602e-04,
          1.97295798e-03, 5.03907737e-04, -5.15098625e-04,
          -2.08496320e-04, -3.82950704e-04, -2.43686940e-04,
          -7.50779582e-05, 5.13086416e-05, 1.59056784e-04, 0., 0., 0.,
          0., 0., 4.96441266e-04, 8.41231609e-04, 7.89037149e-04,
          6.34251744e-04, 9.79454257e-04, 1.29863003e-03, 1.33723149e-03,
          4.78261762e-04, 8.27566037e-05, -2.60825618e-04,
          -6.30371098e-04, -1.85751342e-04, -1.03962357e-05,
          4.36123446e-05, 1.38533331e-04, 0., 0., 0., 0.,
          -1.13368287e-05, 3.14830868e-05, 5.38330292e-04,
          3.48766305e-04, 8.81278356e-06, 6.34882832e-04, 1.24258338e-03,
          1.59048336e-03, 1.12359773e-03, 2.22959978e-04,
          -6.01451669e-04, -3.22681823e-04, -4.16529801e-05,
          -1.86271052e-06, -3.38674653e-07, 0., 0., 0., 0.,
          -1.51157712e-06, -1.15762654e-04, -2.05501696e-04,
          -1.96740162e-04, 1.99402013e-04, -3.94483533e-04,
          6.10089046e-04, 2.81191897e-04, 1.14764739e-03, 6.85496838e-04,
          -7.54888926e-04, -4.92551597e-04, -1.30417378e-04,
          -9.31355225e-06, -8.63620335e-06, -4.86844783e-06, 0., 0., 0.,
          0., -9.06946298e-06, -1.68120328e-04, -4.04939550e-04,
          -5.12412400e-04, -2.56919389e-04, -9.70149471e-04,
          -8.76721810e-04, -3.53261799e-04, 6.39241363e-04,
          -1.27030935e-05, -1.13810378e-03, -2.09636739e-04,
          -3.32872063e-04, -6.59927173e-05, -1.09416960e-05,
          -8.89020953e-07, 0., 0., 0., 0., -9.71922782e-06,
          -3.03089706e-04, -6.20863808e-04, -8.02580209e-04,
          -1.04612380e-03, -1.06612965e-03, -1.78032427e-03,
          4.19894350e-04, 8.44955619e-04, -5.65726019e-04,
          -7.59758172e-04, -4.39891068e-04, -9.13577445e-04,
          -6.71871763e-04, -3.41925712e-04, -3.65367159e-04,
          -6.99144148e-05, -2.85412425e-05, 0., 0., -2.83749177e-05,
          -3.83737846e-04, -2.55431834e-04, -8.10840866e-04,
          -7.26633938e-04, -2.10631042e-04, -9.87808569e-04,
          4.26649058e-05, 1.01409409e-04, -1.01314252e-03,
          -4.47309256e-04, 5.01949842e-07, -1.39714990e-04,
          -7.19141972e-05, 3.87103850e-04, -3.16107144e-05,
          -1.04988867e-04, -7.05513867e-06, 0., 0., -3.83157785e-05,
          -2.28279212e-04, -1.80986914e-04, -2.06054261e-04,
          -3.88491462e-04, 5.83166911e-06, -8.05275980e-04,
          -6.52706833e-04, 1.95397603e-04, -6.40154060e-04,
          -1.22228544e-03, -5.29584184e-04, -1.22369570e-03,
          1.93168031e-04, 1.06701849e-03, 1.74844288e-03, 2.76298117e-04,
          0., 0., 0., -1.18765320e-05, -2.38675333e-04, -3.86770349e-04,
          7.80139293e-04, 1.10566535e-03, 2.76896200e-04,
          -1.33999914e-04, -1.74646302e-05, 6.86173909e-04,
          3.84208077e-04, -2.10054452e-04, -1.03117712e-03,
          -6.89723820e-04, 7.14911876e-05, 2.66836782e-04,
          1.03545457e-03, 4.58520895e-04, 0., 0., 0., 0., 6.96238976e-06,
          -2.38104825e-04, -2.00606431e-04, 5.80106462e-05,
          -1.59160598e-04, -7.28272425e-04, -7.02911871e-04,
          -9.36809665e-05, 6.88740343e-04, 8.13261839e-04,
          -5.98682440e-04, -2.93113175e-04, -4.01951838e-04,
          -3.55223805e-04, 1.34054950e-04, 1.04436622e-04, 0., 0., 0.,
          0., 4.53470057e-05, 3.43117950e-04, 2.85896880e-04,
          1.23538019e-04, 3.66163498e-04, 2.94280588e-04,
          -1.22548663e-04, -2.83182773e-04, -1.79062452e-04,
          3.69204121e-04, -5.30887803e-04, -4.57874528e-04,
          -9.06008863e-05, -5.76449565e-05, -2.21711366e-06, 0., 0., 0.,
          0., 0., 0., 0., 0., 0., 0., 0., 0., 0., 0., 0., 0., 0., 0., 0.,
          0., 0., 0., 0., 0., 0., 0., 0., 0., 0., 0., 0., 0., 0., 0., 0.,
          0., 0., 0., 0., 0., 0., 0. ]
      - [ 0., 0., 0., 0., 0., 0., 0., 0., 0., 0., 0., 0., 0., 0., 0., 0.,
          0., 0., 0., 0., 0., 0., 0., 0., 0., 0., 0., 0., 0., 0., 0., 0.,
          0., 0., 0., 0., 0., 0., 0., 0., 0., 0., 0., 0., 0.,
          -1.32372816e-05, -1.19135533e-04, -2.68841744e-04,
          -1.84739678e-04, -8.27657823e-06, 4.47189406e-04,
          1.47836065e-04, -1.74820729e-04, -1.06549422e-04,
          -2.81023458e-05, 1.64788762e-05, 0., 0., 0., 0., 0., 0., 0.,
          0., -3.96855012e-06, -2.31791491e-04, -3.04749992e-04,
          -3.03201727e-04, -8.17479275e-04, -1.50765700e-03,
          -2.38065732e-05, 1.35754148e-04, -6.26714784e-04,
          -4.03656944e-04, 8.96050260e-05, -2.12870782e-05,
          3.16699152e-05, 1.08863396e-05, 0., 0., 0., 0., 0.,
          -6.45813316e-06, -8.43229427e-05, -3.23796005e-04,
          -2.95912236e-04, -6.93667273e-04, -1.02000474e-03,
          -1.43649883e-03, 7.43556448e-05, -1.35977476e-04,
          -2.93272082e-04, 7.18499185e-04, 5.16260392e-04,
          -2.53464939e-04, -4.18770578e-05, 1.89944967e-05, 0., 0., 0.,
          0., -1.14780164e-06, -4.32125198e-05, -1.21698358e-05,
          7.76155284e-05, -1.17201509e-03, -1.16272934e-03,
          -1.56454524e-04, 1.36226081e-04, -2.51400161e-05,
          -3.03565204e-04, -1.40550977e-03, 2.78664229e-04,
          -1.08396243e-05, -2.96643499e-04, -1.06702806e-04,
          -1.64194189e-05, 0., 0., 0., 0., -5.96856880e-05,
          -2.39301036e-04, 4.55101099e-06, 3.78085824e-04,
          -5.15959167e-04, -1.23665249e-03, -3.67008935e-04,
          9.27205023e-04, 1.73615711e-03, -3.50689545e-04,
          -2.16648122e-03, -9.67861779e-05, -2.00868250e-04,
          -3.16796650e-04, -7.99431145e-05, -3.01913155e-06, 0., 0., 0.,
          0., -4.01730576e-05, -2.57107575e-04, 1.64346595e-04,
          4.28314728e-04, 1.90914710e-04, -1.11395144e-04,
          5.68038959e-04, 1.05287274e-03, 1.87161984e-03, 6.27229223e-04,
          -1.24903047e-03, -1.43727739e-04, -1.87740603e-04,
          -8.37203188e-05, -1.02650474e-05, 2.89790605e-05,
          8.98350845e-05, 0., 0., 0., -5.73900843e-06, -6.42768937e-05,
          3.39969672e-04, 4.92365507e-04, 2.50137207e-04,
          -3.20492079e-04, -4.25305516e-05, -8.70700387e-05,
          5.47582516e-04, 7.86163786e-04, -2.80630949e-04,
          -2.75538710e-04, -4.40579606e-05, -1.55021480e-05,
          -1.48820629e-06, 2.46322015e-05, 7.82434581e-05, 0., 0., 0.,
          0., 0., 1.24606362e-04, 3.93680093e-04, 1.43799552e-04,
          -6.27757225e-04, -2.52869737e-04, -7.18611627e-05,
          7.04450358e-04, 9.98773961e-04, -8.54956335e-04,
          -5.01439266e-04, -1.13320726e-04, -3.56527598e-05,
          -1.64942867e-05, 0., 0., 0., 0., 0., 0., 0., 0.,
          4.27938212e-05, -3.37635021e-04, -1.13283168e-03,
          1.35652808e-04, 2.39507877e-04, 6.97527721e-04,
          -4.92353109e-04, -6.53779891e-04, -9.49243724e-04,
          -6.01308362e-04, -1.68678991e-04, -4.38484931e-05,
          -1.06654779e-05, 0., 0., 0., 0., 0., 0., -3.73192743e-05,
          -1.22168101e-04, -4.10062261e-04, -6.27671834e-04,
          8.89419098e-05, 1.23106909e-03, 1.53096055e-03,
          -2.32838225e-04, -2.62754678e-04, -5.64416230e-04,
          -8.11322476e-04, -2.85441754e-04, -1.39104959e-04,
          -3.53918622e-05, 0., 0., 0., 0., -8.43065095e-07,
          -1.83513966e-05, -8.95748090e-05, -2.40765134e-04,
          -3.17437116e-05, 2.22661460e-04, 2.76130915e-04,
          1.56693102e-03, 2.17149453e-03, -2.23232797e-04,
          -6.80253899e-04, -3.53641837e-04, -6.60521910e-04,
          -4.37814480e-04, -1.65865800e-04, -3.73510811e-05, 0., 0., 0.,
          0., -9.69524899e-06, -1.37592331e-04, -3.07304377e-04,
          -4.10227105e-04, 1.38713789e-04, 5.20722824e-04,
          -2.19297683e-04, 5.98873885e-04, 7.42134929e-04,
          3.68045410e-04, -2.49890272e-05, -5.08281926e-04,
          -1.81238429e-04, 1.10648558e-04, 4.38602612e-04,
          2.78476364e-04, 3.50985283e-06, 0., 0., 0., -5.05839034e-06,
          -3.17231083e-04, -4.86404315e-04, -1.03731749e-04,
          3.11227079e-04, 8.59474763e-04, 9.66940308e-04, 4.00741759e-04,
          -6.50357280e-04, 2.13880659e-04, -2.44564493e-04,
          -3.70431342e-04, 2.38984358e-04, 8.74560850e-04,
          1.01985096e-03, 9.33907519e-04, 1.24617582e-04, 0., 0., 0., 0.,
          -1.76884860e-04, -6.73047674e-04, 8.84640540e-05,
          5.41146321e-04, 4.82803065e-04, -6.15360274e-04,
          -2.82488123e-04, -1.65861018e-03, 1.55207294e-04,
          -2.36574502e-04, -7.18595285e-04, 9.46899017e-05,
          5.53148333e-04, 6.60847640e-04, 7.57353439e-04, 3.65917716e-04,
          0., 0., 0., -5.43443684e-06, -3.98388729e-05, -3.39888007e-04,
          -3.36454483e-04, -6.35642442e-04, -8.71470489e-04,
          -6.86618790e-04, -4.21157485e-04, -1.76119269e-03,
          -2.95986829e-04, 4.15128976e-04, -7.49576895e-04,
          -1.90110208e-04, 1.06778658e-04, 1.44373858e-04,
          1.53213085e-04, 8.54457539e-05, 0., 0., 0., -1.99262686e-05,
          -1.34491725e-04, -7.42013144e-05, -9.76428681e-04,
          -1.38095301e-03, -7.84159871e-04, 4.59558396e-06,
          -1.04095601e-03, -9.54127405e-04, -3.99055425e-04,
          1.37345662e-04, -4.89034224e-04, -7.90245977e-05, 0., 0., 0.,
          0., 0., 0., 0., -7.24591609e-06, -5.31367186e-05,
          -5.19290625e-05, -3.20027939e-05, -1.81147902e-06,
          -3.91763424e-05, -3.82262573e-04, -3.31717602e-04,
          -7.63510179e-05, -1.64135636e-04, -9.64846404e-05,
          -1.21236575e-04, -2.13260846e-05, 0., 0., 0., 0., 0., 0., 0.,
          0., 0., 0., 0., 0., 0., 0., 0., 0., 0., 0., 0., 0., 0., 0., 0.,
          0., 0. ]
      - [ 0., 0., 0., 0., 0., 0., 0., 0., 0., 0., 0., 0., 0., 0., 0., 0.,
          0., 0., 0., 0., 0., 0., 0., 0., 0., 0., 0., 0., 0., 0., 0., 0.,
          0., 0., 0., 0., 0., 0., 0., 0., 0., 0., 0., 0., 0., 0.,
          -6.38877782e-06, -2.03279287e-05, -7.55037399e-06,
          1.10709399e-04, 2.96539220e-04, 1.29819833e-04, 3.16000223e-05,
          1.63305522e-04, 2.85812450e-04, 2.48944816e-05, 0., 0., 0., 0.,
          0., 0., 0., 0., 0., 0., -8.10393904e-05, 6.58568315e-05,
          1.84314369e-04, 3.07937822e-04, 4.98255948e-04, 3.06868489e-04,
          3.33493721e-04, 2.57164094e-04, 1.13199203e-04,
          -3.27786597e-06, 1.02726946e-04, 2.96671751e-05, 0., 0., 0.,
          0., 0., 0., 0., -1.51007480e-05, -1.63626028e-04,
          2.26655684e-04, 4.78896633e-04, 4.15931281e-04, 8.43891525e-04,
          2.11801535e-06, 1.26726416e-04, 3.33112926e-04, 1.72869695e-04,
          1.59765375e-04, 2.10347862e-04, 5.11241888e-05, 0., 0., 0., 0.,
          0., 0., 5.12003935e-05, 1.17322124e-04, -2.15046282e-04,
          -8.03505463e-05, 3.59219557e-04, 6.67299668e-04,
          2.41808710e-04, -3.69431480e-04, 9.93321446e-05,
          6.54565811e-04, 1.98660215e-04, 2.92153534e-04, 1.21881967e-04,
          -8.66085611e-06, 0., 0., 0., 0., 0., -1.10351621e-05,
          -2.28475892e-05, -4.39952455e-05, -1.28233733e-04,
          -5.43454662e-04, 3.23218177e-04, -1.02317317e-05,
          2.74553138e-04, -3.90915957e-04, 5.89133531e-04,
          4.26071492e-04, 6.59284487e-05, 4.62592689e-05,
          -1.50891981e-04, -7.83840296e-05, 0., 0., 0., 0., 0.,
          -5.40142137e-05, 2.87333773e-06, -2.27463388e-04,
          -2.33709798e-04, -5.83649089e-04, -6.41044811e-04,
          1.36319664e-04, 9.70689056e-04, 9.22244799e-04, 8.05644740e-05,
          3.38962200e-05, -1.70747899e-05, -1.11857044e-04,
          -1.07346168e-04, -1.91533945e-06, 1.14004884e-04, 0., 0., 0.,
          -1.21967578e-05, -1.27194755e-04, 1.27819105e-04,
          -2.25554148e-04, -3.23068554e-04, -7.96671724e-04,
          -6.34190044e-04, 6.19690632e-04, 8.33069789e-04,
          2.54919694e-04, -5.60814340e-04, -3.71019647e-04,
          -4.42166609e-04, -1.99373244e-04, -7.55037399e-05,
          3.12594020e-05, 9.92945716e-05, 0., 0., 0., -2.32319198e-05,
          -1.47522689e-04, -4.40172989e-05, -5.11641520e-05,
          -7.21151358e-04, -1.70576409e-03, -9.17949132e-04,
          -1.92104402e-04, 3.13931349e-04, -6.78170181e-05,
          -4.15375136e-04, -7.83079304e-04, -7.65372009e-04,
          -2.33232378e-04, -8.16118336e-05, -2.76365063e-06, 0., 0., 0.,
          0., -1.80047373e-05, -1.45780286e-04, -1.91989457e-04,
          -1.86870995e-04, -2.81063607e-04, -1.90135010e-03,
          -2.07608868e-03, -1.08591456e-04, 3.70939088e-04,
          -6.75012299e-04, -3.58429505e-04, -3.03864188e-04,
          -2.34444262e-04, -2.28803881e-04, -3.88112880e-04,
          -1.39830765e-04, 0., 0., 0., 0., 0., -8.01501228e-05,
          -1.93528031e-04, -2.42003298e-04, -3.71865637e-04,
          -1.43149693e-03, -7.06301711e-04, 5.08023833e-04,
          9.43625637e-05, -9.66937747e-04, -7.04742153e-04,
          -5.52889367e-04, -2.64663831e-04, -3.28388443e-04,
          -4.73359833e-04, -1.70230924e-04, 0., 0., 0., 0., 0.,
          -1.39391514e-05, -9.35084754e-05, -1.12075722e-04,
          -1.03300976e-04, -6.03843539e-04, -4.53936227e-04,
          -2.41745904e-04, -2.52953178e-04, -1.24665641e-03,
          -1.33270724e-03, -1.31366507e-03, -6.61305210e-04,
          -2.17200824e-04, -3.01904132e-04, -1.49237123e-04, 0., 0., 0.,
          0., 0., 0., 1.89395199e-04, 3.86673782e-04, 6.22845313e-04,
          2.71085533e-04, 5.90400577e-06, 2.64901348e-04, 5.58911823e-04,
          -6.65514439e-04, -3.30336130e-04, -2.89093616e-04,
          -5.73248690e-05, 5.46551346e-05, 1.42067598e-04,
          6.31411531e-05, 0., 0., 0., 0., 0., 0., 3.56724951e-04,
          6.02874206e-04, 9.46692249e-04, 7.52238033e-04, 2.39969930e-04,
          5.88833820e-04, 9.59316501e-04, -2.13661828e-04,
          -2.84091384e-05, 2.83028290e-04, 3.26443871e-04,
          3.44414031e-04, 4.47249855e-04, 3.56045959e-04, 4.91097890e-05,
          0., 0., 0., 0., 0., 2.95864622e-04, 5.95895632e-04,
          5.05853677e-04, 4.84133576e-04, 8.60229018e-04, 2.57153879e-04,
          8.11646576e-04, 7.59458053e-04, 2.01267481e-04, 1.79604482e-04,
          2.69760669e-04, 3.02308385e-04, 3.98140051e-04, 4.19187127e-04,
          2.15732289e-04, 0., 0., 0., 0., 2.48116999e-06, 2.28267629e-04,
          1.59790841e-04, -6.11397380e-04, 1.38083022e-04,
          4.44849866e-04, -2.49006756e-04, -1.74779678e-04,
          3.63005121e-04, 3.69044283e-04, -1.69520372e-05,
          -5.79485095e-05, 2.90239259e-05, 8.59421270e-05,
          9.12038886e-05, 5.08637095e-05, 0., 0., 0., 0., 1.11652644e-05,
          2.09658858e-04, -6.34704411e-05, -4.41290991e-04,
          -6.62262610e-05, -3.82480248e-05, -5.32825419e-04,
          -5.61732624e-04, -2.93307938e-04, 5.26982592e-04,
          2.02663388e-04, 6.64039317e-06, -2.32319189e-06,
          -5.52730125e-05, -3.04001551e-05, 0., 0., 0., 0., 0., 0., 0.,
          -1.12703674e-04, -1.87998430e-05, 6.24367749e-05,
          2.93807716e-06, -2.57179898e-04, -2.91933946e-04,
          -3.93879127e-05, 0., 0., 0., 0., -1.74109984e-04,
          -9.94914226e-05, 0., 0., 0., 0., 0., 0., 0., 0., 0., 0., 0.,
          0., 0., 0., 0., 0., 0., 0., 0., 0., 0., 0. ]
      - [ 0., 0., 0., 0., 0., 0., 0., 0., 0., 0., 0., 0., 0., 0., 0., 0.,
          0., 0., 0., 0., 0., 0., 0., 0., 0., 0., 0., 0., 0., 0., 0., 0.,
          0., 0., 0., 0., 0., 0., 0., 0., 0., 0., 0., 0., 0., 0., 0.,
          7.27278939e-06, 8.67044218e-05, 2.36865613e-04, 3.54019285e-04,
          1.00757839e-04, 4.64340337e-05, -4.96108405e-05,
          -1.07165164e-04, -8.69163996e-05, -1.88038284e-05, 0., 0., 0.,
          0., 0., 0., 0., 0., 3.31453884e-05, 9.89324399e-05,
          1.81967640e-04, 1.69806153e-05, 3.40374856e-04, 3.97316908e-04,
          2.98758445e-04, -3.72532988e-04, -5.39403933e-04,
          -6.33160118e-04, -6.56218617e-04, -1.69755542e-04,
          -3.64986772e-05, 0., 0., 0., 0., 0., 0., -1.53812543e-05,
          3.85160383e-05, 1.98852722e-04, 5.45547337e-05,
          -3.63213243e-04, 2.81387620e-04, 3.25882516e-04,
          3.23115441e-04, -5.46813535e-04, -2.29462719e-04,
          -1.07047112e-04, -2.52265076e-04, -2.93276273e-04,
          -1.84109405e-04, -5.65614573e-05, -2.89431284e-07, 0., 0., 0.,
          0., 5.32138984e-05, 1.38890144e-04, -2.65973940e-04,
          -3.62784194e-04, -1.42740639e-04, 2.33984727e-04,
          1.57886694e-04, 2.63936614e-04, -5.48576121e-04,
          -2.34095060e-04, -2.35678424e-04, -6.13617362e-04,
          -7.47815473e-04, -3.98138160e-04, -6.40671642e-05, 0., 0., 0.,
          0., -2.71772478e-05, 1.07063242e-04, 3.14591889e-04,
          -8.71160591e-05, -1.32435467e-04, -4.46411315e-04,
          2.41644768e-04, 2.62726418e-04, 8.18535846e-05,
          -7.87629688e-05, -1.50379099e-04, -5.12562168e-04,
          -1.07110781e-03, -8.20319052e-04, -5.96541096e-04,
          -1.65487188e-04, 0., 0., 0., -5.27319753e-06, -7.95035958e-05,
          1.16918207e-04, 1.94500899e-04, -1.94387670e-04,
          -1.98107256e-04, -6.03675260e-04, -2.56747007e-04,
          1.04970211e-04, 7.34163623e-04, 4.21886274e-04, 1.15417111e-04,
          -3.77358956e-04, -4.55963891e-04, -4.30532062e-04,
          -3.35999415e-04, 5.97204707e-05, 0., 0., 0., -6.49008916e-06,
          -8.43711605e-05, 1.53165092e-04, 1.42251549e-04,
          -6.90335437e-05, -3.42408486e-04, -3.06517817e-04,
          -1.06301552e-04, 1.11617614e-03, 1.35510857e-03,
          5.68083429e-04, -8.74748512e-05, -3.01143620e-04,
          -2.67976109e-04, -2.34728650e-04, -6.33838499e-05,
          1.34224960e-04, 0., 0., 0., -6.49008916e-06, -8.19373745e-05,
          -3.70106900e-05, -1.05003915e-06, -4.81790601e-04,
          -1.08664087e-03, -1.07085670e-03, -3.24605237e-04,
          1.50930195e-03, 1.44149351e-03, 9.51502298e-05,
          -4.70079220e-04, -2.83152680e-04, -2.04391341e-04,
          -8.65646580e-05, -1.79998051e-06, 0., 0., 0., 0.,
          -1.21689172e-05, -1.63861332e-04, -4.13493457e-04,
          -3.77583114e-04, -5.26877120e-04, -1.34981400e-03,
          -7.71434745e-04, 4.80247603e-04, 1.08290615e-03,
          2.01426883e-04, -6.84717437e-04, -5.90980693e-04,
          -3.35536140e-04, -1.51253742e-04, -4.87361140e-05,
          -1.30789958e-05, 0., 0., 0., 0., -5.27319753e-06,
          -1.99123009e-04, -3.97492549e-04, -4.05652652e-04,
          -2.04727054e-04, -9.18872713e-04, 7.33654539e-04,
          1.04455790e-03, 2.17486391e-04, -1.56381459e-04,
          -3.47587775e-04, -5.78151084e-04, -4.54719382e-04,
          -3.57264740e-04, -1.22828249e-04, -4.11849251e-05, 0., 0., 0.,
          0., 0., -6.10919524e-05, -3.85901949e-04, -3.13269760e-04,
          3.09826370e-04, -3.12070741e-04, 1.15495769e-03,
          1.08475739e-03, 8.66198534e-05, -5.46459050e-04,
          -7.00177043e-04, -5.02250099e-04, -3.32465279e-04,
          -4.30805288e-04, -2.57491425e-04, -4.55902118e-05, 0., 0., 0.,
          0., 0., -9.66803927e-05, -5.76175342e-04, -4.51324129e-04,
          4.01446421e-04, 3.29043774e-04, 4.76778980e-04, 2.66693620e-04,
          2.24204661e-04, -6.19004422e-04, -6.60265912e-04,
          -2.54654995e-04, -4.83074609e-06, -7.53880522e-05,
          1.08153909e-04, 2.05874006e-04, 2.74107265e-06, 0., 0., 0., 0.,
          -9.10977396e-05, -2.21349284e-04, -1.13648700e-03,
          -5.14064333e-04, 2.94281810e-04, 1.69186926e-04,
          4.58069990e-04, 7.28352577e-04, -1.96336376e-04,
          -3.78136901e-04, 2.22206290e-04, 9.38540252e-05,
          4.31166380e-04, 5.96007740e-04, 6.62938110e-04, 9.20995808e-05,
          0., 0., 0., 0., -7.20763637e-05, 7.00952369e-05,
          -3.95909476e-04, -7.33558438e-04, -2.96515413e-04,
          -4.62675205e-04, -6.47004286e-04, 1.22249476e-04,
          4.07067535e-04, -3.57847050e-04, -5.65104056e-05,
          1.46068443e-04, 3.15013924e-04, 3.23416374e-04, 5.03530202e-04,
          2.62827671e-04, 0., 0., 0., 0., 0., -6.15599783e-05,
          -1.67690188e-04, -8.53055913e-04, -1.03200099e-03,
          -7.56436668e-04, -6.78592012e-04, -2.47249467e-04,
          2.93246965e-04, 4.17253381e-04, 9.13713393e-06,
          -1.72081083e-04, -1.06152300e-04, 1.27556605e-05,
          9.91884372e-05, 6.13212324e-05, 0., 0., 0., 0., 0.,
          -1.09236069e-04, -1.97666130e-04, -2.54748302e-04,
          -1.03599239e-04, 1.52108536e-04, 1.23052087e-04,
          1.51713670e-04, -1.37535171e-04, 5.38889202e-04,
          -4.75280067e-05, -1.96269611e-04, -8.34659950e-05,
          -1.13004762e-05, 0., 0., 0., 0., 0., 0., 0., -1.62408651e-05,
          -2.09952232e-05, 1.48045248e-04, 1.34212503e-04,
          -2.38331304e-05, -1.79324240e-06, 4.01643301e-05,
          -2.40599635e-04, -1.25493543e-05, -2.23964344e-06,
          -3.61232821e-07, 0., 0., 0., 0., 0., 0., 0., 0., 0., 0., 0.,
          0., 0., 0., 0., 0., 0., 0., 0., 0., 0., 0., 0., 0., 0. ]
      - [ 0., 0., 0., 0., 0., 0., 0., 0., 0., 0., 0., 0., 0., 0., 0., 0.,
          0., 0., 0., 0., 0., 0., 0., 0., 0., 0., 0., -2.06927980e-05,
          -8.78572828e-05, -2.25504074e-04, -1.15286231e-04,
          -5.68818723e-06, -3.38724340e-06, -1.41648361e-05,
          -4.61896798e-06, 0., 0., 0., 0., 0., 0., 0., 0., 0.,
          -3.45546681e-07, -1.13462020e-05, -4.65622834e-05,
          -1.40878969e-04, -3.24179418e-04, -1.73767563e-04,
          -3.29245086e-04, -4.28277184e-04, -3.43858352e-04,
          -5.60867076e-04, 1.31101478e-04, 2.38128341e-05,
          -1.83661450e-05, 0., 0., 0., 0., 0., 0., 0., -4.29465172e-06,
          5.30524358e-06, -1.20990690e-05, -1.87043945e-04,
          -9.02408428e-05, 3.19324608e-04, 6.91936220e-05,
          1.84183125e-04, -4.65113582e-04, -4.63201839e-04,
          -2.02873896e-04, 1.75528439e-05, 1.01460922e-04,
          3.50703958e-05, 0., 0., 0., 0., 0., 0., -7.25648033e-06,
          4.19694443e-05, 8.87056922e-06, -1.18861950e-04,
          1.03614955e-04, 4.24698024e-04, 3.27695918e-04, 5.92072494e-04,
          -4.36779752e-04, -3.49438342e-05, 1.22750047e-04,
          2.23115116e-04, 3.02324828e-04, 6.89717781e-05, 0., 0., 0., 0.,
          0., -1.87582486e-06, 6.79816367e-05, 2.50105135e-04,
          -2.31010199e-04, -2.02637195e-04, 3.01006949e-04,
          5.70598757e-04, 1.79007591e-04, 6.94508548e-04, 3.56759061e-04,
          4.53986489e-04, 2.99124542e-04, 2.56855565e-04, 1.35729337e-04,
          9.35210574e-06, 0., 0., 0., 0., 0., -3.50483060e-06,
          1.68835104e-04, 4.17088217e-04, -8.10929268e-05,
          -3.98264383e-05, 4.00391407e-04, 5.88959840e-04,
          -4.56996058e-05, 8.06304393e-04, 7.18550233e-04,
          5.86236536e-04, 1.60775860e-04, 1.45124259e-05,
          -4.41958582e-05, -4.72258489e-06, 0., 0., 0., 0., 0.,
          -4.04783259e-06, 2.61538022e-04, 3.40523460e-04,
          -1.80477233e-04, -1.44581063e-04, 3.26096109e-04,
          3.03129927e-04, 4.51938278e-04, 1.35024614e-03, 9.39045567e-04,
          7.49745581e-04, 1.60167201e-05, -2.69315526e-04,
          -2.38424200e-05, -5.91337630e-06, 9.54419556e-06, 0., 0., 0.,
          0., -5.43001943e-06, 2.42753173e-04, 2.80952081e-04,
          -2.43287490e-04, -1.69913095e-04, 1.89063212e-04,
          -2.41479647e-04, 1.42856908e-03, 1.06323510e-03,
          3.19805928e-04, 3.19048413e-04, -1.70822692e-04,
          -3.25329107e-04, -6.35085016e-05, -3.58872603e-05,
          7.71436953e-06, 0., 0., 0., 0., -5.87429395e-06,
          6.01678075e-05, 1.05087114e-04, -3.71662667e-04,
          -5.91146061e-04, -5.81867003e-04, -2.17046210e-04,
          6.49676134e-04, -1.60720097e-04, -2.14244807e-04,
          -5.00523951e-04, -3.78019729e-04, -3.16402467e-04,
          -6.56444827e-05, -6.24166642e-05, -1.30735834e-05, 0., 0., 0.,
          0., -5.52874690e-06, -4.09261957e-05, -1.59988645e-04,
          -3.01622262e-04, -6.42355299e-04, -6.82065263e-04,
          -1.19904162e-05, 1.53951754e-04, 2.87493429e-04,
          -3.79850942e-04, -6.92626811e-04, -5.66987030e-04,
          -1.69932799e-04, -7.30169195e-05, -5.52939018e-05,
          1.04256651e-05, 7.20384242e-06, 0., 0., 0., -3.55419456e-06,
          -4.62339121e-05, -1.31536159e-04, -5.19578520e-04,
          -4.18084412e-04, -7.38778850e-04, 3.07663810e-04,
          2.13004314e-04, 4.68135840e-05, -1.25856162e-03,
          -8.98892176e-04, -6.87953026e-04, -1.63388671e-04,
          -9.23459011e-05, -5.40757937e-05, -1.33383755e-05, 0., 0., 0.,
          0., -2.96182890e-07, -4.34970825e-05, -1.05397368e-04,
          -5.49753429e-04, -6.47475070e-04, -9.54402029e-04,
          6.92401227e-05, 1.59610281e-04, -9.97987459e-04,
          -1.45571004e-03, -6.27205591e-04, -8.53406033e-04,
          -1.49826898e-04, -7.92245410e-05, -2.81581633e-05,
          -1.99439015e-07, 0., 0., 0., 0., 0., -1.40870171e-07,
          -2.53701201e-05, -1.52733046e-04, -1.02937513e-03,
          -1.92644133e-04, 4.01275815e-04, 2.70783668e-04,
          -7.20652868e-04, -1.10910775e-03, -8.83683853e-04,
          -3.05454625e-04, 1.49669489e-04, 2.53234582e-04,
          1.36132585e-04, 1.27922260e-06, 0., 0., 0., 0., 0.,
          3.96989963e-05, 1.41122378e-04, -7.56082227e-05,
          -3.30867653e-04, 1.94238179e-04, -4.71222651e-04,
          1.74489091e-04, -3.66195512e-04, -1.13718514e-03,
          -4.28881554e-04, 1.55826812e-04, 5.51002333e-04,
          5.75842103e-04, 4.87438752e-04, 6.46744884e-05, 0., 0., 0., 0.,
          0., 1.30167202e-04, 2.34210616e-04, 1.78021015e-04,
          2.03080242e-04, 8.92207536e-05, -8.06390366e-04,
          2.94425427e-05, -2.50353787e-06, -1.78393544e-04,
          -5.93688710e-05, 1.97215777e-04, 4.29323758e-04,
          4.02433681e-04, 4.40841948e-04, 2.17951703e-04, 0., 0., 0., 0.,
          2.33802643e-06, 2.58566230e-04, 2.56967789e-04, 1.16674979e-04,
          1.63902645e-04, 1.96328809e-04, 1.79905110e-04, 1.15215689e-05,
          6.65033760e-04, 6.47789857e-04, 6.77357821e-05, 6.13145894e-05,
          8.63166788e-05, 8.63166788e-05, 9.16013742e-05, 5.10853824e-05,
          0., 0., 0., 0., 1.05211193e-05, 2.21617898e-04, 1.96864115e-04,
          3.77220822e-05, 1.73131684e-05, 1.04251107e-04, 8.05844684e-05,
          7.15026617e-05, 2.32726350e-04, 6.94617047e-04, 2.25328622e-04,
          1.73768294e-05, 0., 0., 0., 0., 0., 0., 0., 0., 0., 0., 0., 0.,
          0., 0., 5.25637824e-06, 2.78278840e-05, 0., 0., 0., 0., 0., 0.,
          0., 0., 0., 0., 0., 0., 0., 0., 0., 0., 0., 0., 0., 0., 0., 0.,
          0., 0., 0., 0., 0., 0., 0. ]
      - [ 0., 0., 0., 0., 0., 0., 0., 0., 0., 0., 0., 0., 0., 0., 0., 0.,
          0., 0., 0., 0., 0., 0., 0., 0., 0., 0., 0., 0., 0., 0., 0., 0.,
          0., 0., 0., 0., 0., 0., 0., 0., 0., 0., 0., 0., 0., 0., 0., 0.,
          0., 1.82554533e-04, 5.45454386e-04, 2.13780426e-04,
          5.85699809e-06, 0., 0., 0., 0., 0., 0., 0., 0., 0., 0., 0., 0.,
          -3.41372470e-06, -1.28238738e-04, -3.34365730e-04,
          -4.98306705e-04, -2.81295477e-04, -1.86772973e-04,
          6.30373426e-04, 7.97380111e-04, 9.40309372e-04, 5.23742463e-04,
          1.79768977e-04, 1.15372648e-04, 2.94709898e-05, 0., 0., 0., 0.,
          0., -4.60121410e-05, -1.64828074e-04, -3.10687843e-04,
          -1.39196438e-03, -1.55698310e-03, -1.01961417e-03,
          -2.33363928e-04, -3.45014210e-04, -1.34796428e-04,
          2.31166734e-04, 1.50919578e-03, 6.70347479e-04,
          -1.71929732e-05, 8.87187634e-05, 5.79596126e-05, 0., 0., 0.,
          0., -9.67816413e-06, -2.58303044e-04, -4.44073143e-04,
          -3.41987005e-04, -2.09801504e-03, -1.56895374e-03,
          -8.06627038e-04, -5.90506359e-04, -4.44612495e-04,
          -1.17781258e-03, -1.57783367e-03, -3.44456057e-04,
          -5.32947131e-04, -3.17647413e-04, -3.90904461e-05,
          7.85893099e-06, 0., 0., 3.65343294e-06, -1.56419919e-05,
          -9.16614299e-05, -2.63449823e-04, -2.21247203e-04,
          -2.48680502e-04, -1.00966194e-03, -1.51815056e-03,
          -2.00042245e-03, -5.85639733e-04, 4.20911034e-04,
          -7.25707196e-06, -1.11177878e-03, -5.97282720e-04,
          -2.29921847e-04, -4.64223005e-04, -1.06992367e-04,
          -3.04000969e-06, 0., 0., -1.62693902e-06, -5.14908643e-05,
          -3.78209574e-04, -6.16651145e-04, -3.58556455e-04,
          -2.72506644e-04, -7.26522529e-04, -8.08846555e-04,
          -1.77839698e-04, -5.71885066e-05, 5.38280117e-04,
          -4.33680289e-05, -9.02995758e-04, -5.58596279e-04,
          -5.43615781e-04, -5.13885985e-04, -3.12319811e-04,
          -3.04000969e-05, 0., 0., 0., -1.66952868e-05, -2.86087801e-04,
          -8.67348397e-04, -6.78683631e-04, -5.06808457e-04,
          -2.19204434e-04, -1.95087981e-04, 3.89799709e-04,
          4.45032900e-04, 1.34418509e-03, 3.59485508e-04, 1.88132646e-04,
          -1.54815498e-04, -3.85440915e-04, -4.28740314e-04,
          -2.29520738e-04, -4.56001453e-06, 0., 0., 0., 0.,
          -8.41248111e-05, -4.15246992e-04, -4.06033010e-04,
          -2.17637717e-05, -5.62096502e-05, -9.94277580e-05,
          4.59789415e-04, 6.61850558e-04, 2.18164432e-03, 1.23543825e-04,
          6.81539299e-04, 8.70725708e-05, -4.50746156e-04,
          -4.11315763e-04, -9.36497672e-05, -5.19509513e-07, 0., 0., 0.,
          0., -5.04800955e-05, -1.19289529e-04, -1.60978627e-04,
          -1.98371752e-04, 5.66208519e-06, -2.48059980e-04,
          2.04024866e-04, 8.13525752e-04, 1.21813535e-03,
          -2.05844510e-04, 2.35075655e-04, -2.93043733e-04,
          -6.30529772e-04, -2.94604804e-04, -1.23007849e-04,
          -1.50657761e-05, 0., 0., 0., 0., -2.61899058e-05,
          -7.57051976e-06, -1.08829161e-04, -2.63948110e-04,
          -1.17216921e-04, -2.41633388e-04, -1.47728191e-04,
          8.05181480e-05, 2.83242582e-04, -7.80966249e-04,
          -6.18819962e-04, -9.48717818e-04, -7.37322378e-04,
          -4.72877175e-04, -1.76996313e-04, -5.19509513e-07, 0., 0., 0.,
          0., -1.02304318e-06, 0., -3.25441724e-05, -1.21846933e-04,
          -7.16956783e-05, 1.21649617e-04, -1.15452730e-03,
          -3.27170128e-04, 1.50678781e-04, -1.34611258e-03,
          -2.57967622e-04, 9.04853187e-06, -2.50580459e-04,
          -2.58546817e-04, -2.21578055e-04, -1.91089784e-04, 0., 0., 0.,
          0., 0., 0., 0., -1.60371419e-05, 2.53887963e-04,
          3.61090089e-04, -8.08435143e-04, 1.36161252e-04,
          9.06739559e-04, -1.12310510e-04, 7.69923790e-04,
          9.31888644e-06, -3.54344957e-05, -1.90437058e-04,
          -2.04025084e-04, -2.46403302e-04, 0., 0., 0., 0., 0., 0., 0.,
          9.02457905e-05, 7.91029015e-05, 7.35691632e-04,
          -4.94386826e-04, 5.05143253e-04, 1.38457830e-03,
          5.01700444e-04, 2.48508441e-04, 1.65871548e-04, 3.19388550e-04,
          4.28995525e-04, 6.11925148e-04, 5.27917698e-04, 8.19979759e-05,
          0., 0., 0., 0., 0., 2.81867775e-04, 4.59655683e-04,
          -1.58559938e-04, 1.25937781e-03, -2.01624804e-04,
          1.09604414e-04, 9.23687243e-04, 7.70490209e-04, 6.40634215e-04,
          4.74235014e-04, 5.74841048e-04, 6.30599621e-04, 6.64769264e-04,
          6.99911267e-04, 3.60205391e-04, 0., 0., 0., 0., 6.60212609e-05,
          6.30408118e-04, 7.15099814e-05, 1.47854487e-04, 1.23378180e-03,
          -2.66215560e-04, -1.58125316e-04, -3.79598263e-04,
          -4.81166644e-04, 8.38977809e-04, 2.36551365e-04,
          8.40060020e-05, 1.31833760e-04, 1.43496451e-04, 1.52281951e-04,
          8.49264688e-05, 0., 0., 0., 0., 8.13263177e-05, 5.18691086e-04,
          -6.70155976e-04, -6.81676611e-04, 1.30228815e-04,
          -4.58438153e-04, 1.98608832e-04, -1.52318121e-03,
          -1.25542376e-03, 6.59419398e-04, 2.01482660e-04,
          1.83014236e-05, 0., 0., 0., 0., 0., 0., 0., 0., 0., 0.,
          -5.69513068e-04, -1.22096599e-03, -1.21756562e-03,
          -1.01457303e-03, -2.14754691e-04, -5.19652909e-04,
          -3.91954731e-04, -1.53753324e-04, -6.17410551e-05,
          -4.72508100e-06, 0., 0., 0., 0., 0., 0., 0., 0., 0., 0.,
          -1.98496637e-05, -1.64468642e-04, -1.93603555e-04,
          -2.35573185e-04, -2.89393447e-05, 0., 0., -2.26803895e-05,
          -3.11855365e-05, -3.46505931e-06, 0., 0., 0., 0., 0. ]
      - [ 0., 0., 0., 0., 0., 0., 0., 0., 0., 0., 0., 0., 0., 0., 0., 0.,
          0., 0., 0., 0., 0., 0., 0., 0., 0., 0., 0., 0., 0., 0., 0., 0.,
          0., 0., 0., 0., 0., 0., 0., 0., 0., 0., 0., 0., 0., 0.,
          -2.22858739e-06, -2.19540052e-05, 1.07203101e-04,
          2.91956443e-04, 5.02335373e-04, -6.23683503e-04,
          -2.39895890e-04, -4.33428468e-05, 3.97106633e-05,
          2.24575982e-04, 7.28029845e-05, 0., 0., 0., 0., 0., 0., 0., 0.,
          -1.67485541e-05, -2.64225411e-04, 1.10707399e-04,
          -1.52196502e-04, -8.82777269e-04, -6.42387953e-04,
          -7.68503640e-04, -1.13805162e-03, -7.90348044e-04,
          -3.57639277e-04, 9.84579674e-04, 9.24117572e-04,
          7.53017011e-05, 0., 0., 0., 0., 0., 0., 0., -3.26693145e-04,
          -7.16728042e-04, -2.90438493e-05, -9.52230417e-04,
          -1.00490067e-03, -1.07706955e-03, -1.27818505e-03,
          -1.71602180e-03, -9.91939683e-04, -7.42380798e-04,
          9.70973542e-06, 7.96666602e-04, 1.48093342e-04, 0., 0., 0., 0.,
          0., 0., 3.58317993e-05, -3.19669562e-05, -7.65135104e-04,
          -1.19562773e-03, -4.52484092e-04, 1.38707843e-03,
          -1.56951617e-04, -1.71472406e-04, 1.92878084e-04,
          5.30107296e-04, -4.92440420e-04, -6.07469876e-04,
          -1.01434547e-04, -3.04558955e-04, 0., 0., 0., 0., 0., 0.,
          1.73065200e-04, 2.87913223e-04, -2.42456154e-04,
          -1.03923480e-03, -1.78355444e-03, 4.37653041e-04,
          9.32815077e-04, 1.54095294e-03, -1.88318387e-04,
          -1.04704790e-03, -6.59592450e-04, -2.30048737e-03,
          -1.92714087e-03, -1.05115550e-03, 0., 0., 0., 0., 0., 0.,
          2.53748964e-04, 1.52041166e-05, 2.17576307e-04,
          -1.03314244e-03, -1.29653967e-03, 1.56355032e-04,
          1.23045628e-03, 1.53286685e-03, -5.35165891e-04,
          7.52901717e-04, -1.17862120e-03, -2.40223226e-03,
          -1.70208025e-03, -2.35522864e-04, 5.86032053e-04, 0., 0., 0.,
          0., -4.05501814e-05, 1.32507412e-04, 2.67676398e-04,
          -3.05256050e-04, -1.24892639e-03, 2.74409133e-04,
          7.89837737e-04, 1.60629814e-03, 8.92875309e-04, 1.56259444e-03,
          1.90012332e-04, -1.77665509e-03, -7.81955896e-04,
          -3.04271904e-04, 1.60686206e-04, 5.10415004e-04, 0., 0., 0.,
          0., 0., -5.36087791e-05, 3.14532430e-04, -9.21450730e-04,
          -2.19855807e-03, -7.48831197e-04, 9.42905841e-04,
          1.18522796e-04, 1.01180347e-04, 1.22032478e-03, 1.88694190e-04,
          -5.03234332e-04, 6.15186480e-07, 0., 0., 4.84090106e-06, 0.,
          0., 0., 0., 0., 0., 1.70179686e-04, 4.34232847e-04,
          -2.00882510e-04, 3.78756522e-04, 6.96515664e-04,
          9.27179644e-05, -5.30415389e-04, 2.94542580e-04,
          2.70271266e-04, -1.39348049e-04, 9.65818326e-05, 0.,
          9.68180211e-06, 6.77726130e-05, 1.21022522e-05, 0., 0., 0., 0.,
          0., 1.35347873e-04, 6.15245604e-04, 8.21991998e-04,
          -3.42823914e-05, 4.09144763e-04, -3.84654384e-04,
          2.09262143e-04, -5.37928601e-04, -2.26508258e-04,
          -9.30597016e-04, -3.95257404e-04, 0., 0., 1.21022522e-05, 0.,
          0., 0., 0., 0., 0., -4.90297156e-04, -8.99446954e-04,
          -2.18437868e-03, -5.79634041e-04, 6.32158015e-04,
          -1.45333761e-04, -7.84063479e-04, -1.12017978e-03,
          3.91152222e-04, -5.48218377e-04, -1.01557001e-03,
          -2.65286653e-04, 0., 0., 0., 0., 0., 0., -5.66087292e-05,
          -2.13482053e-04, -6.24087872e-04, -8.71395459e-04,
          1.22158992e-04, -1.37891795e-04, 1.41925714e-03,
          1.36019324e-03, -1.27752137e-03, -2.30061618e-04,
          2.38538007e-04, 1.78398273e-04, -6.29928778e-04,
          3.50556184e-05, 2.10409809e-04, 7.13892462e-07, 0., 0., 0., 0.,
          -7.32684450e-04, -5.76506369e-04, -3.89396882e-04,
          -4.85040597e-04, 1.40685574e-04, -2.64740491e-04,
          1.19354588e-03, 5.64161164e-04, 1.90703096e-04, 3.90091591e-04,
          1.48421488e-04, -7.19839882e-05, 3.13543656e-04,
          1.06536760e-03, 1.02948060e-03, 1.40569551e-04, 0., 0., 0., 0.,
          -5.02608484e-04, -3.51483250e-05, 5.58546861e-04,
          5.38548513e-04, 2.69809330e-04, 4.03441118e-05,
          -1.41872233e-03, -1.08958292e-03, 3.26936017e-04,
          9.61162586e-05, -8.36787978e-04, -1.11668676e-04,
          8.09870369e-04, 1.07159361e-03, 1.13780377e-03, 5.80583466e-04,
          0., 0., 0., 0., 5.02011335e-06, 5.05829405e-04, 4.69766732e-04,
          1.57353221e-04, -4.86707693e-04, -2.33134278e-03,
          -1.00343046e-03, -1.15889206e-03, -1.16219046e-03,
          -3.91572510e-04, -5.65816474e-04, -1.03884500e-04,
          2.31004960e-04, 2.31004960e-04, 2.45148112e-04, 1.36717223e-04,
          0., 0., 0., 0., 2.25905096e-05, 4.32451139e-04, 1.44068021e-04,
          -2.78836960e-04, -3.59981146e-04, -9.27781628e-04,
          2.55061692e-04, -7.87002558e-04, -1.83036632e-03,
          5.42323804e-04, 3.73625837e-04, 4.05486753e-05, 0., 0., 0., 0.,
          0., 0., 0., 0., 0., 0., 0., 0., 0., 0., 0., 0., 0., 0., 0., 0.,
          0., 0., 0., 0., 0., 0., 0., 0., 0., 0., 0., 0., 0., 0., 0., 0.,
          0., 0., 0., 0., 0., 0., 0., 0., 0. ]
      - [ 0., 0., 0., 0., 0., 0., 0., 0., 0., 0., 0., 0., 0., 0., 0., 0.,
          0., 0., 0., 0., 0., 0., 0., 0., 0., 0., 0., 0., 0., 0., 0., 0.,
          0., 0., 0., 0., 0., 0., 0., 0., 0., 0., 0., 0., 0., 0., 0., 0.,
          -4.42934106e-05, 1.56295180e-04, 6.08474715e-04,
          2.34629595e-04, 6.62237107e-06, 0., 0., 0., 0., 0., 0., 0., 0.,
          0., 0., 0., 0., 0., 0., 2.69943732e-04, 2.54264196e-05,
          3.46150686e-04, 1.10518478e-03, 1.06665131e-03, 7.90299790e-04,
          3.78560762e-05, 3.56032206e-06, 0., 0., 0., 0., 0., 0., 0., 0.,
          0., 0., 0., -3.54332110e-06, 3.88080458e-04, 3.76673997e-04,
          1.48760155e-04, 2.91005796e-04, 1.48026666e-04, 1.65885882e-04,
          -3.43805848e-04, 6.18603837e-04, 3.78696161e-04,
          5.94600351e-05, 0., 0., 0., 0., 0., 0., 0., 1.04567574e-04,
          4.38178773e-04, -2.66559393e-04, -6.51200069e-04,
          2.37879518e-04, -1.70061085e-03, -3.52585834e-04,
          -6.78536831e-04, -1.96654722e-03, -1.96360561e-04,
          -2.04754702e-04, 9.43532286e-05, 7.87443714e-05, 0., 0., 0.,
          0., 0., 0., 0., 2.53537233e-04, 6.27814734e-04,
          -5.00443275e-04, -1.44310202e-03, -1.41598939e-04,
          -2.10104277e-03, 6.81412581e-04, -5.22436749e-04,
          -8.57726729e-04, 1.49446423e-04, -4.48797713e-04,
          -3.93489434e-04, -7.21833544e-07, 0., 0., 0., 0., 0., 0.,
          -1.54470436e-05, 3.28041031e-04, 3.46801098e-04,
          -6.67558692e-04, -9.28043912e-04, -4.40462725e-04,
          -7.42702279e-04, 3.19164130e-04, -2.46023090e-04,
          5.46752708e-05, 3.35987133e-04, -7.55655405e-04,
          -3.02674744e-04, -1.44366709e-06, 3.21405605e-05,
          9.96357339e-05, 0., 0., 0., 0., -1.30651111e-04,
          1.39252836e-04, 2.71650002e-04, -8.67623603e-05,
          -1.24150698e-04, 9.93363064e-05, -1.42641846e-04,
          1.25216946e-04, -9.84908474e-05, -9.46312211e-04,
          -5.47901727e-04, -6.23733969e-04, -2.90123862e-04, 0.,
          2.73194764e-05, 8.67795097e-05, 0., 0., 0., -5.19720161e-05,
          -2.19869718e-04, -1.78136936e-04, 1.70260973e-05,
          -6.39605336e-04, -6.32184674e-04, -9.70973750e-04,
          1.46132124e-05, 1.48174760e-03, -6.47128036e-04,
          -7.97924120e-04, -1.13381376e-03, -5.63795154e-04,
          -2.90309283e-04, -1.01056694e-05, 0., 0., 0., 0., 0.,
          -7.14615235e-05, -2.06588345e-04, -3.01124383e-04,
          -4.67302452e-04, -7.71741034e-04, -1.46635552e-03,
          -7.49845931e-04, 5.06334589e-04, 1.74265844e-03,
          -9.58614750e-04, -6.65770494e-04, -5.99259918e-04,
          -5.94519079e-04, -3.32586205e-04, -2.74296744e-05, 0., 0., 0.,
          0., 0., -1.87676724e-05, -1.82768053e-04, -2.39233821e-04,
          -3.37002624e-04, -3.56517063e-04, -1.11355213e-03,
          2.20045622e-04, 1.63890456e-03, 6.76322205e-04,
          -5.58424101e-04, -3.34143639e-04, -1.67201302e-04,
          -4.84362914e-04, -2.89383490e-04, -1.44366709e-06, 0., 0., 0.,
          0., 0., 0., -4.98065165e-05, -1.68042840e-04, -2.19525959e-04,
          -2.87975796e-04, -4.48357925e-04, 2.98227736e-04,
          1.41262857e-03, 3.10105534e-04, -6.11341966e-04,
          -3.21338266e-05, -2.05060482e-04, -4.97995119e-04,
          -2.87960836e-04, -3.46473598e-06, 0., 0., 0., 0., 0., 0.,
          -1.29930040e-05, 6.59108555e-05, 2.33461004e-04,
          1.04093502e-04, 6.69939443e-04, 5.69914992e-04, 1.17705285e-03,
          3.69145768e-04, 3.89517489e-04, 1.70671075e-04,
          -1.32020883e-04, -5.48725584e-05, -4.99868620e-05,
          1.76205212e-04, 1.04766274e-04, 0., 0., 0., 0., 0., 0.,
          2.23504685e-04, 2.58212793e-04, 4.86061967e-04, 1.45195611e-03,
          6.62142353e-04, 7.75272376e-04, 2.03799718e-04, 1.41739554e-03,
          1.55390793e-04, 2.24140749e-05, 3.72311217e-04, 5.23556257e-04,
          6.93247886e-04, 5.64763846e-04, 9.27131914e-05, 0., 0., 0., 0.,
          0., -3.98728844e-05, -1.39905140e-04, 1.80142437e-04,
          4.92457300e-04, 8.04999028e-04, -4.23224992e-04,
          6.99052063e-04, 1.15522149e-03, 4.51171218e-04, 5.88894618e-05,
          3.79736186e-04, 5.22663700e-04, 6.49581605e-04, 7.18036434e-04,
          4.07275802e-04, 0., 0., 0., 0., 0., -7.08694552e-06,
          -2.21084061e-04, -8.25041032e-04, -7.44671561e-05,
          4.46002610e-04, -1.66200625e-04, 5.59855544e-04,
          3.08652438e-04, 4.45661106e-04, 6.94053188e-06,
          -1.29934211e-04, -3.33652206e-05, 1.57278089e-04,
          1.72181652e-04, 9.60243779e-05, 0., 0., 0., 0., 0.,
          -3.11485996e-06, -1.29982858e-04, -5.11443068e-04,
          -2.64872564e-04, 6.95243943e-04, -6.13084063e-04,
          3.57580779e-04, -1.67643186e-04, 5.53177844e-04,
          -3.82570834e-05, -2.37131069e-04, -1.28731466e-04,
          -8.43224007e-06, -5.02583816e-07, 0., 0., 0., 0., 0., 0.,
          -1.86891600e-06, 2.77700692e-05, -6.21588479e-05,
          -9.24929918e-05, -2.19801179e-04, -8.56224913e-04,
          -5.34484279e-04, -6.86740095e-04, -1.29707812e-04,
          -2.90332799e-04, -1.73136374e-04, 0., 0., 0., 0., 0., 0., 0.,
          0., 0., 0., 0., 0., 0., 0., 0., -3.73361909e-05,
          -1.96014997e-04, -2.33351184e-05, 0., 0., 0., 0., 0., 0., 0. ]
      - [ 0., 0., 0., 0., 0., 0., 0., 0., 0., 0., 0., 0., 0., 0., 0., 0.,
          0., 0., 0., 0., 0., 0., 0., 0., 0., 0., 0., 0., 8.34155344e-06,
          9.23529205e-06, 0., 0., 0., 0., 0., 0., 0., 0., 0., 0., 0., 0.,
          0., 0., 1.61581174e-05, 1.15109680e-04, 1.51231041e-04,
          -7.83144878e-06, -7.53613422e-04, -8.08187120e-04,
          -5.78961044e-04, -6.95934112e-04, -1.10383006e-03,
          -1.06778950e-03, -1.09856168e-03, -4.09971108e-04, 0., 0., 0.,
          0., 0., 0., 9.29575890e-06, -1.77321326e-05, 2.09650490e-04,
          5.25150062e-05, 4.85802084e-05, -5.52802929e-04,
          2.15026084e-04, -8.07247998e-04, 2.85856368e-04,
          -2.21287773e-04, 4.97308210e-04, -1.89394996e-04,
          -5.38491819e-04, -8.61419074e-04, 1.50010210e-05,
          -1.72021907e-06, 0., 0., 0., 8.65255345e-07, -6.27474976e-04,
          -4.71287989e-04, -7.11127301e-04, -4.33793350e-04,
          8.35082494e-04, 3.53837386e-04, 8.16890155e-04,
          -1.47774594e-03, 1.47327257e-03, 2.49452249e-04,
          -1.91465323e-03, -1.57702016e-04, -4.63743549e-04,
          -1.24454778e-03, -9.30939714e-05, -3.85333660e-05, 0., 0., 0.,
          7.78729827e-06, -1.20899337e-03, -3.86272470e-04,
          -1.10810273e-03, -1.38869346e-03, -5.54333325e-04,
          8.32290389e-04, -1.60059470e-04, -1.59481962e-04,
          -9.32209223e-05, -4.85459896e-04, -2.75790761e-03,
          -8.12030106e-04, 9.38310637e-04, 2.47960037e-04,
          7.88498321e-04, 3.92236179e-05, 0., 0., 0., 1.53823169e-06,
          -4.31187073e-04, 6.50737726e-04, 1.00544370e-04,
          -1.31491601e-04, 4.38730989e-04, 8.48896336e-04,
          -2.06185156e-04, -1.25951564e-03, -4.55377478e-04,
          -5.84526802e-04, 1.80948176e-03, 1.33724054e-04,
          6.28166832e-04, -9.38637182e-04, 1.83398472e-04,
          -5.96415384e-06, 0., 0., 0., 0., 5.76262255e-06,
          3.49442795e-04, -2.13797422e-04, 4.65235993e-04,
          1.47129211e-03, 8.25022522e-04, 6.32293231e-04,
          -2.63466471e-04, -1.24208152e-03, -1.69439334e-03,
          1.11764472e-03, -1.12103135e-03, 2.76559353e-04,
          4.13806643e-04, 3.53404670e-04, 0., 0., 0., 0., 0.,
          5.76836896e-07, 8.36413528e-06, 1.31610032e-05, 1.99581962e-04,
          1.14940200e-03, -6.52219169e-04, -2.19241739e-03,
          -1.54301245e-03, -2.27029971e-03, -1.37439428e-03,
          -6.52107818e-04, -2.32841121e-03, 5.93761681e-04,
          7.17437535e-04, 2.96303042e-04, 5.71297423e-05, 0., 0., 0., 0.,
          0., 1.61581174e-05, 2.57446227e-04, 1.84713252e-04,
          1.11753889e-03, -6.15601894e-04, -2.05828366e-03,
          -7.56745343e-04, -7.83048221e-04, -7.42366188e-04,
          -1.78344431e-03, 1.84233708e-04, -8.39516943e-05,
          -5.78249164e-04, -3.95564653e-04, 1.35331720e-04, 0., 0., 0.,
          0., 1.02824388e-05, 5.13263454e-04, 1.09131774e-03,
          1.45536673e-03, 4.94236629e-05, -1.34322140e-03,
          -1.67367602e-04, -1.21180456e-05, -6.40273560e-04,
          -5.58448839e-04, -9.78476717e-04, 9.60930542e-04,
          8.15619540e-04, -5.21694252e-04, -1.31754426e-03,
          -2.64884118e-04, 0., 0., 0., -3.77631914e-05, 1.92726118e-04,
          7.00887991e-04, 1.64588005e-03, 2.37041223e-03,
          -1.43758089e-05, -2.04424927e-04, 1.51741516e-03,
          -1.48538151e-04, 1.37630152e-03, 5.63551148e-04,
          4.91472951e-04, 1.26611814e-03, 4.21866862e-04, 2.12355750e-04,
          -1.28898863e-03, -6.09372684e-04, 2.89591353e-05, 0., 0.,
